{"learner":{"attributes":{"scikit_learn":"{\"_estimator_type\": \"classifier\"}"},"feature_names":[],"feature_types":[],"gradient_booster":{"model":{"gbtree_model_param":{"num_parallel_tree":"1","num_trees":"300"},"iteration_indptr":[0,1,2,3,4,5,6,7,8,9,10,11,12,13,14,15,16,17,18,19,20,21,22,23,24,25,26,27,28,29,30,31,32,33,34,35,36,37,38,39,40,41,42,43,44,45,46,47,48,49,50,51,52,53,54,55,56,57,58,59,60,61,62,63,64,65,66,67,68,69,70,71,72,73,74,75,76,77,78,79,80,81,82,83,84,85,86,87,88,89,90,91,92,93,94,95,96,97,98,99,100,101,102,103,104,105,106,107,108,109,110,111,112,113,114,115,116,117,118,119,120,121,122,123,124,125,126,127,128,129,130,131,132,133,134,135,136,137,138,139,140,141,142,143,144,145,146,147,148,149,150,151,152,153,154,155,156,157,158,159,160,161,162,163,164,165,166,167,168,169,170,171,172,173,174,175,176,177,178,179,180,181,182,183,184,185,186,187,188,189,190,191,192,193,194,195,196,197,198,199,200,201,202,203,204,205,206,207,208,209,210,211,212,213,214,215,216,217,218,219,220,221,222,223,224,225,226,227,228,229,230,231,232,233,234,235,236,237,238,239,240,241,242,243,244,245,246,247,248,249,250,251,252,253,254,255,256,257,258,259,260,261,262,263,264,265,266,267,268,269,270,271,272,273,274,275,276,277,278,279,280,281,282,283,284,285,286,287,288,289,290,291,292,293,294,295,296,297,298,299,300],"tree_info":[0,0,0,0,0,0,0,0,0,0,0,0,0,0,0,0,0,0,0,0,0,0,0,0,0,0,0,0,0,0,0,0,0,0,0,0,0,0,0,0,0,0,0,0,0,0,0,0,0,0,0,0,0,0,0,0,0,0,0,0,0,0,0,0,0,0,0,0,0,0,0,0,0,0,0,0,0,0,0,0,0,0,0,0,0,0,0,0,0,0,0,0,0,0,0,0,0,0,0,0,0,0,0,0,0,0,0,0,0,0,0,0,0,0,0,0,0,0,0,0,0,0,0,0,0,0,0,0,0,0,0,0,0,0,0,0,0,0,0,0,0,0,0,0,0,0,0,0,0,0,0,0,0,0,0,0,0,0,0,0,0,0,0,0,0,0,0,0,0,0,0,0,0,0,0,0,0,0,0,0,0,0,0,0,0,0,0,0,0,0,0,0,0,0,0,0,0,0,0,0,0,0,0,0,0,0,0,0,0,0,0,0,0,0,0,0,0,0,0,0,0,0,0,0,0,0,0,0,0,0,0,0,0,0,0,0,0,0,0,0,0,0,0,0,0,0,0,0,0,0,0,0,0,0,0,0,0,0,0,0,0,0,0,0,0,0,0,0,0,0,0,0,0,0,0,0,0,0,0,0,0,0,0,0,0,0,0,0,0,0,0,0,0,0,0,0,0,0,0,0],"trees":[{"base_weights":[4.3118104E-2,7.839445E-1,-5.6710553E-1,4.0338823E-1,1.4584124E0,6.684112E-1,-6.7369485E-1,2.056802E-1,1.9008731E-2,1.6363226E-1,8.6389326E-2,1.6877136E-1,-6.039936E-2,-5.467547E-2,-1.17846645E-1],"categories":[],"categories_nodes":[],"categories_segments":[],"categories_sizes":[],"default_left":[0,0,0,0,0,0,0,0,0,0,0,0,0,0,0],"id":0,"left_children":[1,3,5,7,9,11,13,-1,-1,-1,-1,-1,-1,-1,-1],"loss_changes":[6.132251E1,1.51312065E1,1.0251101E1,1.3904589E1,8.8253784E-1,9.336141E0,3.7774754E0,0E0,0E0,0E0,0E0,0E0,0E0,0E0,0E0],"parents":[2147483647,0,0,1,1,2,2,3,3,4,4,5,5,6,6],"right_children":[2,4,6,8,10,12,14,-1,-1,-1,-1,-1,-1,-1,-1],"split_conditions":[8.1303364E-1,3.844938E-1,-1.7356564E0,-1.1580855E0,1.1136934E0,2.0812144E0,2.2808464E-1,2.056802E-1,1.9008731E-2,1.6363226E-1,8.6389326E-2,1.6877136E-1,-6.039936E-2,-5.467547E-2,-1.17846645E-1],"split_indices":[0,5,2,2,2,3,2,0,0,0,0,0,0,0,0],"split_type":[0,0,0,0,0,0,0,0,0,0,0,0,0,0,0],"sum_hessian":[1.3366492E2,6.024334E1,7.342157E1,3.953469E1,2.0708649E1,5.4124875E0,6.800908E1,3.5298831E0,3.6004807E1,1.4590184E1,6.118464E0,2.8239064E0,2.588581E0,5.600748E1,1.2001603E1],"tree_param":{"num_deleted":"0","num_feature":"7","num_nodes":"15","size_leaf_vector":"1"}},{"base_weights":[-4.338283E-2,-8.385253E-1,1.4644032E0,1.0569018E0,-9.3031937E-1,2.253917E-1,4.259047E-1,1.4042082E-1,2.7185238E-3,-1.0822945E-1,-4.9311515E-2,8.444658E-2,-1.0751822E-1],"categories":[],"categories_nodes":[],"categories_segments":[],"categories_sizes":[],"default_left":[0,0,0,0,0,0,0,0,0,0,0,0,0],"id":1,"left_children":[1,3,5,7,9,-1,11,-1,-1,-1,-1,-1,-1],"loss_changes":[1.6438408E2,1.6596321E1,3.7864136E1,1.6116495E0,5.1886597E0,0E0,1.4531984E1,0E0,0E0,0E0,0E0,0E0,0E0],"parents":[2147483647,0,0,1,1,2,2,3,3,4,4,6,6],"right_children":[2,4,6,8,10,-1,12,-1,-1,-1,-1,-1,-1],"split_conditions":[1.3806239E0,-1.8896753E0,8.1303364E-1,-1.22008614E-1,-1.21286534E-1,2.253917E-1,-1.7592421E-1,1.4042082E-1,2.7185238E-3,-1.0822945E-1,-4.9311515E-2,8.444658E-2,-1.0751822E-1],"split_indices":[1,2,0,5,5,0,5,0,0,0,0,0,0],"split_type":[0,0,0,0,0,0,0,0,0,0,0,0,0],"sum_hessian":[1.3508768E2,8.873596E1,4.635172E1,3.6132507E0,8.512271E1,2.5667645E1,2.0684074E1,2.429976E0,1.1832747E0,6.2070946E1,2.3051764E1,1.651616E1,4.1679144E0],"tree_param":{"num_deleted":"0","num_feature":"7","num_nodes":"13","size_leaf_vector":"1"}},{"base_weights":[1.4616668E-2,-7.003119E-1,1.293076E0,7.9163873E-1,-7.991973E-1,1.9604716E-1,3.9431092E-1,1.3678643E-1,-1.4689082E-2,-1.9477969E-2,-9.565518E-2,7.16928E-2,-1.1477498E-1],"categories":[],"categories_nodes":[],"categories_segments":[],"categories_sizes":[],"default_left":[0,0,0,0,0,0,0,0,0,0,0,0,0],"id":2,"left_children":[1,3,5,7,9,-1,11,-1,-1,-1,-1,-1,-1],"loss_changes":[1.2226094E2,1.3291309E1,2.8001083E1,3.356961E0,7.514263E0,0E0,1.1615307E1,0E0,0E0,0E0,0E0,0E0,0E0],"parents":[2147483647,0,0,1,1,2,2,3,3,4,4,6,6],"right_children":[2,4,6,8,10,-1,12,-1,-1,-1,-1,-1,-1],"split_conditions":[1.3806239E0,-1.7356564E0,8.1303364E-1,-1.22008614E-1,-4.0055117E-1,1.9604716E-1,-1.7592421E-1,1.3678643E-1,-1.4689082E-2,-1.9477969E-2,-9.565518E-2,7.16928E-2,-1.1477498E-1],"split_indices":[1,2,0,5,0,0,5,0,0,0,0,0,0],"split_type":[0,0,0,0,0,0,0,0,0,0,0,0,0],"sum_hessian":[1.317729E2,8.480258E1,4.6970314E1,4.835812E0,7.9966774E1,2.6276728E1,2.0693588E1,2.7127938E0,2.1230185E0,1.698049E1,6.298628E1,1.7555796E1,3.1377926E0],"tree_param":{"num_deleted":"0","num_feature":"7","num_nodes":"13","size_leaf_vector":"1"}},{"base_weights":[-1.0263719E-2,-5.630288E-1,3.518891E-1,-7.2886086E-1,-7.8042746E-3,4.9018124E-1,-7.698329E-1,-8.8613674E-2,-5.4689087E-2,-5.9524477E-2,2.092393E-2,2.5580505E-2,9.8191135E-2,-2.1492504E-2,-9.7497344E-2],"categories":[],"categories_nodes":[],"categories_segments":[],"categories_sizes":[],"default_left":[0,0,0,0,0,0,0,0,0,0,0,0,0,0,0],"id":3,"left_children":[1,3,5,7,9,11,13,-1,-1,-1,-1,-1,-1,-1,-1],"loss_changes":[2.716621E1,4.9395313E0,1.30986185E1,6.986828E-1,1.8283484E0,8.233139E0,8.593092E-1,0E0,0E0,0E0,0E0,0E0,0E0,0E0,0E0],"parents":[2147483647,0,0,1,1,2,2,3,3,4,4,5,5,6,6],"right_children":[2,4,6,8,10,12,14,-1,-1,-1,-1,-1,-1,-1,-1],"split_conditions":[-4.130893E-1,1.0446225E0,2.0812144E0,-4.7486696E-1,-4.8826498E-1,3.844938E-1,2.93186E0,-8.8613674E-2,-5.4689087E-2,-5.9524477E-2,2.092393E-2,2.5580505E-2,9.8191135E-2,-2.1492504E-2,-9.7497344E-2],"split_indices":[5,6,3,5,5,5,3,0,0,0,0,0,0,0,0],"split_type":[0,0,0,0,0,0,0,0,0,0,0,0,0,0,0],"sum_hessian":[1.3371552E2,5.2709183E1,8.100633E1,4.0346066E1,1.2363118E1,7.2616745E1,8.389587E0,1.9565771E1,2.0780294E1,2.8653572E0,9.497761E0,5.0206665E1,2.241008E1,2.8170707E0,5.572517E0],"tree_param":{"num_deleted":"0","num_feature":"7","num_nodes":"15","size_leaf_vector":"1"}},{"base_weights":[-2.0275328E-2,4.3741918E-1,-3.8469416E-1,-1.8890865E-1,6.310564E-1,-5.8704364E-1,1.432827E-1,-9.8604105E-2,1.8745795E-3,1.2610519E-1,3.863522E-2,2.5702624E-2,-6.529017E-2,3.0452544E-2,-9.482894E-2],"categories":[],"categories_nodes":[],"categories_segments":[],"categories_sizes":[],"default_left":[0,0,0,0,0,0,0,0,0,0,0,0,0,0,0],"id":4,"left_children":[1,3,5,7,9,11,13,-1,-1,-1,-1,-1,-1,-1,-1],"loss_changes":[2.1579004E1,7.0770063E0,7.776081E0,2.3884478E0,6.3039417E0,3.0720978E0,3.9413147E0,0E0,0E0,0E0,0E0,0E0,0E0,0E0,0E0],"parents":[2147483647,0,0,1,1,2,2,3,3,4,4,5,5,6,6],"right_children":[2,4,6,8,10,12,14,-1,-1,-1,-1,-1,-1,-1,-1],"split_conditions":[8.1303364E-1,-3.6912113E-1,1.0446225E0,-5.0736076E-1,-3.8799095E-1,-1.7356564E0,3.556101E-2,-9.8604105E-2,1.8745795E-3,1.2610519E-1,3.863522E-2,2.5702624E-2,-6.529017E-2,3.0452544E-2,-9.482894E-2],"split_indices":[0,5,6,5,2,2,2,0,0,0,0,0,0,0,0],"split_type":[0,0,0,0,0,0,0,0,0,0,0,0,0,0,0],"sum_hessian":[1.27367485E2,5.6369488E1,7.0998E1,1.3317592E1,4.3051895E1,5.12459E1,1.9752098E1,1.9776044E0,1.1339988E1,1.0882173E1,3.2169724E1,3.498941E0,4.774696E1,1.7838139E1,1.9139584E0],"tree_param":{"num_deleted":"0","num_feature":"7","num_nodes":"15","size_leaf_vector":"1"}},{"base_weights":[3.5836447E-2,-6.288272E-1,1.1548469E0,-7.351788E-1,-9.65238E-2,1.7051503E-1,3.909505E-1,-2.5014142E-2,-8.429544E-2,2.3545539E-2,-9.3158E-2,4.282896E-3,9.366112E-2],"categories":[],"categories_nodes":[],"categories_segments":[],"categories_sizes":[],"default_left":[0,0,0,0,0,0,0,0,0,0,0,0,0],"id":5,"left_children":[1,3,5,7,9,-1,11,-1,-1,-1,-1,-1,-1],"loss_changes":[9.892045E1,4.654602E0,2.0162651E1,3.4182014E0,4.3919573E0,0E0,4.1475816E0,0E0,0E0,0E0,0E0,0E0,0E0],"parents":[2147483647,0,0,1,1,2,2,3,3,4,4,6,6],"right_children":[2,4,6,8,10,-1,12,-1,-1,-1,-1,-1,-1],"split_conditions":[1.3806239E0,7.8470004E-1,8.1303364E-1,-4.0055117E-1,1.2305688E0,1.7051503E-1,1.0446225E0,-2.5014142E-2,-8.429544E-2,2.3545539E-2,-9.3158E-2,4.282896E-3,9.366112E-2],"split_indices":[1,4,0,0,3,0,6,0,0,0,0,0,0],"split_type":[0,0,0,0,0,0,0,0,0,0,0,0,0],"sum_hessian":[1.3102312E2,8.2473816E1,4.8549294E1,6.842226E1,1.4051559E1,2.7503716E1,2.1045578E1,1.3043173E1,5.5379086E1,1.0568182E1,3.4833775E0,1.3506908E1,7.5386696E0],"tree_param":{"num_deleted":"0","num_feature":"7","num_nodes":"13","size_leaf_vector":"1"}},{"base_weights":[6.7822404E-2,-5.2990186E-1,1.0657845E0,-6.768921E-1,-1.4911345E-1,1.5260817E-1,4.4841078E-1,-7.6366626E-2,1.2048981E-2,2.0919996E-3,-8.906233E-2,7.396026E-2,-1.059823E-1],"categories":[],"categories_nodes":[],"categories_segments":[],"categories_sizes":[],"default_left":[0,0,0,0,0,0,0,0,0,0,0,0,0],"id":6,"left_children":[1,3,5,7,9,-1,11,-1,-1,-1,-1,-1,-1],"loss_changes":[7.560163E1,4.3399544E0,1.2800644E1,4.0332947E0,2.9663646E0,0E0,1.0307272E1,0E0,0E0,0E0,0E0,0E0,0E0],"parents":[2147483647,0,0,1,1,2,2,3,3,4,4,6,6],"right_children":[2,4,6,8,10,-1,12,-1,-1,-1,-1,-1,-1],"split_conditions":[1.3806239E0,-1.21286534E-1,8.1303364E-1,7.8470004E-1,2.0812144E0,1.5260817E-1,-1.9373561E-1,-7.6366626E-2,1.2048981E-2,2.0919996E-3,-8.906233E-2,7.396026E-2,-1.059823E-1],"split_indices":[1,5,0,4,3,0,5,0,0,0,0,0,0],"split_type":[0,0,0,0,0,0,0,0,0,0,0,0,0],"sum_hessian":[1.2479395E2,7.834102E1,4.6452934E1,5.596143E1,2.2379587E1,2.5768637E1,2.0684298E1,5.0507317E1,5.454112E0,1.8995558E1,3.3840284E0,1.7764217E1,2.9200795E0],"tree_param":{"num_deleted":"0","num_feature":"7","num_nodes":"13","size_leaf_vector":"1"}},{"base_weights":[-8.675304E-3,-6.4706486E-1,1.0028507E0,6.146176E-1,-7.5596136E-1,1.4705318E0,4.1247702E-1,1.5307455E-1,-7.165955E-2,-3.043584E-2,-8.80864E-2,3.5345744E-2,1.5054308E-1,3.0353519E-3,1.0298697E-1],"categories":[],"categories_nodes":[],"categories_segments":[],"categories_sizes":[],"default_left":[0,0,0,0,0,0,0,0,0,0,0,0,0,0,0],"id":7,"left_children":[1,3,5,7,9,11,13,-1,-1,-1,-1,-1,-1,-1,-1],"loss_changes":[8.335065E1,1.1335899E1,1.3183826E1,9.436667E0,3.8657646E0,5.3915024E-1,5.505057E0,0E0,0E0,0E0,0E0,0E0,0E0,0E0,0E0],"parents":[2147483647,0,0,1,1,2,2,3,3,4,4,5,5,6,6],"right_children":[2,4,6,8,10,12,14,-1,-1,-1,-1,-1,-1,-1,-1],"split_conditions":[1.3806239E0,-1.2735996E0,8.1303364E-1,2.0812144E0,-4.0055117E-1,-1.8896753E0,1.0446225E0,1.5307455E-1,-7.165955E-2,-3.043584E-2,-8.80864E-2,3.5345744E-2,1.5054308E-1,3.0353519E-3,1.0298697E-1],"split_indices":[1,2,0,3,0,2,6,0,0,0,0,0,0,0,0],"split_type":[0,0,0,0,0,0,0,0,0,0,0,0,0,0,0],"sum_hessian":[1.27071304E2,7.812545E1,4.8945858E1,5.838314E0,7.228713E1,2.6478954E1,2.2466904E1,3.3695412E0,2.4687726E0,1.640593E1,5.5881203E1,1.1392992E0,2.5339657E1,1.4525676E1,7.941228E0],"tree_param":{"num_deleted":"0","num_feature":"7","num_nodes":"15","size_leaf_vector":"1"}},{"base_weights":[-9.2760596E-4,-4.9514535E-1,8.417267E-1,6.421582E-1,-5.949425E-1,1.2946278E0,2.896307E-1,1.2986645E-1,4.7119167E-3,-2.5727985E-2,-7.032263E-2,3.259728E-2,1.3261168E-1,5.621766E-2,-8.6927064E-2],"categories":[],"categories_nodes":[],"categories_segments":[],"categories_sizes":[],"default_left":[0,0,0,0,0,0,0,0,0,0,0,0,0,0,0],"id":8,"left_children":[1,3,5,7,9,11,13,-1,-1,-1,-1,-1,-1,-1,-1],"loss_changes":[5.2210663E1,9.350946E0,1.1213924E1,2.6169226E0,2.4942646E0,3.3553696E-1,7.492591E0,0E0,0E0,0E0,0E0,0E0,0E0,0E0,0E0],"parents":[2147483647,0,0,1,1,2,2,3,3,4,4,5,5,6,6],"right_children":[2,4,6,8,10,12,14,-1,-1,-1,-1,-1,-1,-1,-1],"split_conditions":[1.3806239E0,-1.2735996E0,8.1303364E-1,8.1303364E-1,-4.0055117E-1,-1.8126658E0,-1.7592421E-1,1.2986645E-1,4.7119167E-3,-2.5727985E-2,-7.032263E-2,3.259728E-2,1.3261168E-1,5.621766E-2,-8.6927064E-2],"split_indices":[1,2,0,0,0,2,5,0,0,0,0,0,0,0,0],"split_type":[0,0,0,0,0,0,0,0,0,0,0,0,0,0,0],"sum_hessian":[1.2336858E2,7.802136E1,4.534722E1,5.8555884E0,7.216578E1,2.4172695E1,2.1174526E1,2.2217958E0,3.6337924E0,1.834289E1,5.3822887E1,1.1184738E0,2.305422E1,1.755979E1,3.6147368E0],"tree_param":{"num_deleted":"0","num_feature":"7","num_nodes":"15","size_leaf_vector":"1"}},{"base_weights":[5.199174E-3,-4.8470214E-1,8.163811E-1,-6.1574525E-1,-7.321569E-2,1.2045919E0,3.9160958E-1,-5.766317E-2,-1.05643176E-1,9.0651356E-2,-2.446025E-2,1.2678662E-1,6.1418522E-2,5.9168633E-2,-7.460123E-2],"categories":[],"categories_nodes":[],"categories_segments":[],"categories_sizes":[],"default_left":[0,0,0,0,0,0,0,0,0,0,0,0,0,0,0],"id":9,"left_children":[1,3,5,7,9,11,13,-1,-1,-1,-1,-1,-1,-1,-1],"loss_changes":[4.7571484E1,3.9796925E0,6.960575E0,3.643036E-1,3.4395423E0,8.3034515E-2,5.6773624E0,0E0,0E0,0E0,0E0,0E0,0E0,0E0,0E0],"parents":[2147483647,0,0,1,1,2,2,3,3,4,4,5,5,6,6],"right_children":[2,4,6,8,10,12,14,-1,-1,-1,-1,-1,-1,-1,-1],"split_conditions":[1.3806239E0,-4.9800225E-2,8.1303364E-1,-1.0756694E-1,-3.0544654E-2,2.2907145E0,-1.7592421E-1,-5.766317E-2,-1.05643176E-1,9.0651356E-2,-2.446025E-2,1.2678662E-1,6.1418522E-2,5.9168633E-2,-7.460123E-2],"split_indices":[1,5,0,5,5,5,5,0,0,0,0,0,0,0,0],"split_type":[0,0,0,0,0,0,0,0,0,0,0,0,0,0,0],"sum_hessian":[1.1771135E2,7.364002E1,4.4071327E1,5.5476448E1,1.8163574E1,2.2067421E1,2.2003906E1,5.3074272E1,2.402174E0,2.0657084E0,1.6097866E1,1.889499E1,3.1724305E0,1.9120945E1,2.8829613E0],"tree_param":{"num_deleted":"0","num_feature":"7","num_nodes":"15","size_leaf_vector":"1"}},{"base_weights":[-8.673013E-2,-2.326748E-1,5.4251784E-1,-4.6076337E-1,-4.8660886E-2,6.994049E-1,-4.627061E-1,-2.6110906E-2,-8.703844E-2,2.6064902E-3,-7.931214E-2,1.093029E-1,5.233088E-2,2.0013323E-2,-8.345147E-2],"categories":[],"categories_nodes":[],"categories_segments":[],"categories_sizes":[],"default_left":[0,0,0,0,0,0,0,0,0,0,0,0,0,0,0],"id":10,"left_children":[1,3,5,7,9,11,13,-1,-1,-1,-1,-1,-1,-1,-1],"loss_changes":[1.095672E1,4.0249023E0,3.8725543E0,3.2845154E0,3.0519662E0,8.048649E-1,1.0640504E0,0E0,0E0,0E0,0E0,0E0,0E0,0E0,0E0],"parents":[2147483647,0,0,1,1,2,2,3,3,4,4,5,5,6,6],"right_children":[2,4,6,8,10,12,14,-1,-1,-1,-1,-1,-1,-1,-1],"split_conditions":[3.844938E-1,-4.2528388E-1,1.2305688E0,-4.7286054E-1,1.3673812E-1,5.1631355E-1,-4.0055117E-1,-2.6110906E-2,-8.703844E-2,2.6064902E-3,-7.931214E-2,1.093029E-1,5.233088E-2,2.0013323E-2,-8.345147E-2],"split_indices":[5,5,3,5,5,5,0,0,0,0,0,0,0,0,0],"split_type":[0,0,0,0,0,0,0,0,0,0,0,0,0,0,0],"sum_hessian":[1.1693373E2,9.543033E1,2.1503407E1,4.1940437E1,5.3489887E1,1.8863567E1,2.6398396E0,2.9297781E1,1.2642657E1,4.9487526E1,4.0023603E0,4.2211366E0,1.464243E1,1.114573E0,1.5252665E0],"tree_param":{"num_deleted":"0","num_feature":"7","num_nodes":"15","size_leaf_vector":"1"}},{"base_weights":[5.9081126E-2,-4.1523424E-1,8.595619E-1,7.0837915E-1,-5.2746546E-1,1.2389998E0,4.0707344E-1,1.2641123E-1,1.6555287E-2,-6.3240916E-2,-1.8146602E-2,2.1284048E-2,1.275613E-1,8.143897E-3,9.6231766E-2],"categories":[],"categories_nodes":[],"categories_segments":[],"categories_sizes":[],"default_left":[0,0,0,0,0,0,0,0,0,0,0,0,0,0,0],"id":11,"left_children":[1,3,5,7,9,11,13,-1,-1,-1,-1,-1,-1,-1,-1],"loss_changes":[4.5536034E1,9.881048E0,7.152973E0,1.9848948E0,2.3950024E0,6.2150955E-1,3.8688056E0,0E0,0E0,0E0,0E0,0E0,0E0,0E0,0E0],"parents":[2147483647,0,0,1,1,2,2,3,3,4,4,5,5,6,6],"right_children":[2,4,6,8,10,12,14,-1,-1,-1,-1,-1,-1,-1,-1],"split_conditions":[1.3806239E0,-1.504628E0,8.1303364E-1,8.1303364E-1,1.0446225E0,-1.5816374E0,1.0446225E0,1.2641123E-1,1.6555287E-2,-6.3240916E-2,-1.8146602E-2,2.1284048E-2,1.275613E-1,8.143897E-3,9.6231766E-2],"split_indices":[1,2,0,0,6,2,6,0,0,0,0,0,0,0,0],"split_type":[0,0,0,0,0,0,0,0,0,0,0,0,0,0,0],"sum_hessian":[1.179925E2,7.439305E1,4.359945E1,6.273503E0,6.811955E1,2.2768526E1,2.0830923E1,2.4433239E0,3.830179E0,5.16316E1,1.648795E1,1.0191094E0,2.1749416E1,1.3853137E1,6.9777865E0],"tree_param":{"num_deleted":"0","num_feature":"7","num_nodes":"15","size_leaf_vector":"1"}},{"base_weights":[-3.3600163E-2,-1.5470846E-1,4.7379792E-1,-8.770505E-2,-1.107436E-1,1.2316102E-1,2.3053448E-1,-6.5961317E-3,-8.6348385E-2,-3.7090853E-2,3.9277118E-2],"categories":[],"categories_nodes":[],"categories_segments":[],"categories_sizes":[],"default_left":[0,0,0,0,0,0,0,0,0,0,0],"id":12,"left_children":[1,3,5,-1,7,-1,9,-1,-1,-1,-1],"loss_changes":[7.1807747E0,2.8921924E0,3.8700628E0,0E0,2.9726174E0,0E0,1.9301575E0,0E0,0E0,0E0,0E0],"parents":[2147483647,0,0,1,1,2,2,4,4,6,6],"right_children":[2,4,6,-1,8,-1,10,-1,-1,-1,-1],"split_conditions":[3.844938E-1,-4.8994985E-1,5.504922E-1,-8.770505E-2,1.3673812E-1,1.2316102E-1,8.2151437E-1,-6.5961317E-3,-8.6348385E-2,-3.7090853E-2,3.9277118E-2],"split_indices":[5,5,5,0,5,0,5,0,0,0,0],"split_type":[0,0,0,0,0,0,0,0,0,0,0],"sum_hessian":[1.146625E2,9.312908E1,2.1533419E1,4.2558947E0,8.8873184E1,4.24538E0,1.7288038E1,8.4909355E1,3.9638288E0,3.3994381E0,1.38886E1],"tree_param":{"num_deleted":"0","num_feature":"7","num_nodes":"11","size_leaf_vector":"1"}},{"base_weights":[-7.696977E-2,-5.001887E-1,6.886319E-1,4.2308363E-1,-5.824836E-1,1.0397499E0,3.504752E-1,1.3068926E-1,-9.3392156E-2,-2.572423E-2,-6.8549E-2,2.5642032E-2,1.0717795E-1,4.653178E-2,-8.452214E-2],"categories":[],"categories_nodes":[],"categories_segments":[],"categories_sizes":[],"default_left":[0,0,0,0,0,0,0,0,0,0,0,0,0,0,0],"id":13,"left_children":[1,3,5,7,9,11,13,-1,-1,-1,-1,-1,-1,-1,-1],"loss_changes":[3.60684E1,5.685322E0,4.3458233E0,8.941268E0,2.0396461E0,2.0072365E-1,3.3753893E0,0E0,0E0,0E0,0E0,0E0,0E0,0E0,0E0],"parents":[2147483647,0,0,1,1,2,2,3,3,4,4,5,5,6,6],"right_children":[2,4,6,8,10,12,14,-1,-1,-1,-1,-1,-1,-1,-1],"split_conditions":[1.3806239E0,-1.2735996E0,8.1303364E-1,1.2305688E0,-4.0055117E-1,-1.8126658E0,4.976177E-1,1.3068926E-1,-9.3392156E-2,-2.572423E-2,-6.8549E-2,2.5642032E-2,1.0717795E-1,4.653178E-2,-8.452214E-2],"split_indices":[1,2,0,3,0,2,2,0,0,0,0,0,0,0,0],"split_type":[0,0,0,0,0,0,0,0,0,0,0,0,0,0,0],"sum_hessian":[1.092533E2,7.05825E1,3.8670807E1,5.437519E0,6.514497E1,1.7953945E1,2.0716864E1,3.3152478E0,2.1222715E0,1.6510532E1,4.8634445E1,1.0590532E0,1.6894892E1,1.9458755E1,1.2581079E0],"tree_param":{"num_deleted":"0","num_feature":"7","num_nodes":"15","size_leaf_vector":"1"}},{"base_weights":[1.4791125E-3,-3.7131488E-1,5.759942E-1,7.418372E-1,-4.7758827E-1,1.0793E0,1.387231E-1,1.0118853E-1,-1.603735E-2,-5.8144655E-2,2.8828017E-3,1.15565374E-1,4.4549596E-2,3.4422357E-2,-8.301308E-2],"categories":[],"categories_nodes":[],"categories_segments":[],"categories_sizes":[],"default_left":[0,0,0,0,0,0,0,0,0,0,0,0,0,0,0],"id":14,"left_children":[1,3,5,7,9,11,13,-1,-1,-1,-1,-1,-1,-1,-1],"loss_changes":[2.4346136E1,8.510036E0,9.695144E0,1.7215731E0,3.3587952E0,4.8441696E-1,5.280015E0,0E0,0E0,0E0,0E0,0E0,0E0,0E0,0E0],"parents":[2147483647,0,0,1,1,2,2,3,3,4,4,5,5,6,6],"right_children":[2,4,6,8,10,12,14,-1,-1,-1,-1,-1,-1,-1,-1],"split_conditions":[1.3806239E0,-1.2735996E0,8.1303364E-1,1.3505326E-1,3.844938E-1,2.1938744E0,-1.9373561E-1,1.0118853E-1,-1.603735E-2,-5.8144655E-2,2.8828017E-3,1.15565374E-1,4.4549596E-2,3.4422357E-2,-8.301308E-2],"split_indices":[1,2,0,5,5,5,5,0,0,0,0,0,0,0,0],"split_type":[0,0,0,0,0,0,0,0,0,0,0,0,0,0,0],"sum_hessian":[1.11675026E2,6.794212E1,4.3732906E1,5.3999805E0,6.254214E1,1.9648691E1,2.4084213E1,4.0624523E0,1.337528E0,5.1775593E1,1.0766545E1,1.6801298E1,2.8473935E0,2.0401606E1,3.6826074E0],"tree_param":{"num_deleted":"0","num_feature":"7","num_nodes":"15","size_leaf_vector":"1"}},{"base_weights":[-3.5511246E-3,-3.936788E-1,6.210042E-1,-3.363173E-1,-1.0330826E-1,9.911857E-2,2.8075328E-1,-3.0676488E-2,-7.218927E-2,5.801801E-2,-1.7797126E-2],"categories":[],"categories_nodes":[],"categories_segments":[],"categories_sizes":[],"default_left":[0,0,0,0,0,0,0,0,0,0,0],"id":15,"left_children":[1,3,5,7,-1,-1,9,-1,-1,-1,-1],"loss_changes":[2.688804E1,2.1436043E0,5.066065E0,5.056381E-1,0E0,0E0,3.3316822E0,0E0,0E0,0E0,0E0],"parents":[2147483647,0,0,1,1,2,2,3,3,6,6],"right_children":[2,4,6,8,-1,-1,10,-1,-1,-1,-1],"split_conditions":[1.3806239E0,2.6372802E0,8.1303364E-1,2.0812144E0,-1.0330826E-1,9.911857E-2,3.7992316E-1,-3.0676488E-2,-7.218927E-2,5.801801E-2,-1.7797126E-2],"split_indices":[1,6,0,3,0,0,3,0,0,0,0],"split_type":[0,0,0,0,0,0,0,0,0,0,0],"sum_hessian":[1.0834895E2,6.6918236E1,4.143072E1,6.280952E1,4.1087136E0,1.8926373E1,2.2504347E1,6.0005962E1,2.8035588E0,1.3456205E1,9.0481415E0],"tree_param":{"num_deleted":"0","num_feature":"7","num_nodes":"11","size_leaf_vector":"1"}},{"base_weights":[3.657834E-2,-2.4775001E-1,5.3358656E-1,-3.3174843E-1,2.2029792E-1,5.951554E-1,-1.8517815E-1,-2.8027335E-2,-9.9604525E-2,1.2373233E-1,-1.4930588E-2,2.7976988E-2,8.501103E-2,-4.5697924E-2,2.919653E-2],"categories":[],"categories_nodes":[],"categories_segments":[],"categories_sizes":[],"default_left":[0,0,0,0,0,0,0,0,0,0,0,0,0,0,0],"id":16,"left_children":[1,3,5,7,9,11,13,-1,-1,-1,-1,-1,-1,-1,-1],"loss_changes":[1.5120327E1,2.7524033E0,1.832263E0,1.7102537E0,4.3084974E0,2.6633568E0,6.3051486E-1,0E0,0E0,0E0,0E0,0E0,0E0,0E0,0E0],"parents":[2147483647,0,0,1,1,2,2,3,3,4,4,5,5,6,6],"right_children":[2,4,6,8,10,12,14,-1,-1,-1,-1,-1,-1,-1,-1],"split_conditions":[1.3806239E0,3.844938E-1,2.0812144E0,1.3505326E-1,4.701002E-1,-3.2900602E-1,-2.3083119E-2,-2.8027335E-2,-9.9604525E-2,1.2373233E-1,-1.4930588E-2,2.7976988E-2,8.501103E-2,-4.5697924E-2,2.919653E-2],"split_indices":[1,5,3,5,5,5,5,0,0,0,0,0,0,0,0],"split_type":[0,0,0,0,0,0,0,0,0,0,0,0,0,0,0],"sum_hessian":[1.0506295E2,6.714956E1,3.7913387E1,5.7179096E1,9.970463E0,3.5080402E1,2.832986E0,5.438669E1,2.7924109E0,2.0318346E0,7.9386277E0,1.6619274E1,1.8461128E1,1.8317845E0,1.0012016E0],"tree_param":{"num_deleted":"0","num_feature":"7","num_nodes":"15","size_leaf_vector":"1"}},{"base_weights":[7.402015E-2,8.2926315E-1,5.63918E-3,1.2258512E-1,-2.9726962E-2,4.7822115E-1,-1.5437724E-1,7.179775E-2,6.905896E-3,-2.5454639E-2,1.385247E-2],"categories":[],"categories_nodes":[],"categories_segments":[],"categories_sizes":[],"default_left":[0,0,0,0,0,0,0,0,0,0,0],"id":17,"left_children":[1,3,5,-1,-1,7,9,-1,-1,-1,-1],"loss_changes":[5.4437356E0,4.274601E0,7.465522E0,0E0,0E0,2.3998747E0,2.199876E0,0E0,0E0,0E0,0E0],"parents":[2147483647,0,0,1,1,2,2,5,5,6,6],"right_children":[2,4,6,-1,-1,8,10,-1,-1,-1,-1],"split_conditions":[-1.7356564E0,2.0812144E0,-4.0055117E-1,1.2258512E-1,-2.9726962E-2,1.1136934E0,1.0446225E0,7.179775E-2,6.905896E-3,-2.5454639E-2,1.385247E-2],"split_indices":[2,3,0,0,0,2,6,0,0,0,0],"split_type":[0,0,0,0,0,0,0,0,0,0,0],"sum_hessian":[1.0449892E2,7.752148E0,9.674677E1,5.6684475E0,2.083701E0,2.3969183E1,7.277759E1,1.4637381E1,9.331803E0,5.4328724E1,1.844886E1],"tree_param":{"num_deleted":"0","num_feature":"7","num_nodes":"11","size_leaf_vector":"1"}},{"base_weights":[2.9868469E-2,-1.4470427E-1,2.2117162E-1,9.0971805E-2,-2.0532225E-1,3.5609573E-1,-6.5307033E-1,-1.1491613E-2,-9.311714E-2,4.0698595E-2,-8.046344E-2,-3.2348514E-2,-8.92513E-2],"categories":[],"categories_nodes":[],"categories_segments":[],"categories_sizes":[],"default_left":[0,0,0,0,0,0,0,0,0,0,0,0,0],"id":18,"left_children":[1,3,5,-1,7,9,11,-1,-1,-1,-1,-1,-1],"loss_changes":[3.4559155E0,3.6517463E0,6.0493665E0,0E0,3.3104887E0,2.889172E0,2.594397E-1,0E0,0E0,0E0,0E0,0E0,0E0],"parents":[2147483647,0,0,1,1,2,2,4,4,5,5,6,6],"right_children":[2,4,6,-1,8,10,12,-1,-1,-1,-1,-1,-1],"split_conditions":[-3.2435194E-1,-1.1965902E0,2.0812144E0,9.0971805E-2,-3.6053702E-1,4.576825E0,7.9664895E-3,-1.1491613E-2,-9.311714E-2,4.0698595E-2,-8.046344E-2,-3.2348514E-2,-8.92513E-2],"split_indices":[5,2,3,0,5,4,5,0,0,0,0,0,0],"split_type":[0,0,0,0,0,0,0,0,0,0,0,0,0],"sum_hessian":[1.0152362E2,5.3210358E1,4.8313263E1,2.1312277E0,5.1079132E1,4.2367287E1,5.945977E0,4.645178E1,4.627352E0,4.120988E1,1.1574053E0,3.4913027E0,2.4546745E0],"tree_param":{"num_deleted":"0","num_feature":"7","num_nodes":"13","size_leaf_vector":"1"}},{"base_weights":[-4.2696774E-2,-3.6384124E-1,4.742887E-1,5.810067E-1,-4.6079713E-1,2.9438272E-2,6.2388796E-1,1.14408135E-1,-4.9330503E-2,-5.9181023E-2,-1.6099496E-2,4.4879418E-2,-1.00283735E-1,7.1156256E-2,-2.0361364E-2],"categories":[],"categories_nodes":[],"categories_segments":[],"categories_sizes":[],"default_left":[0,0,0,0,0,0,0,0,0,0,0,0,0,0,0],"id":19,"left_children":[1,3,5,7,9,11,13,-1,-1,-1,-1,-1,-1,-1,-1],"loss_changes":[1.6766943E1,5.9674444E0,2.5591993E0,4.33463E0,2.1429977E0,5.1238785E0,2.2441378E0,0E0,0E0,0E0,0E0,0E0,0E0,0E0,0E0],"parents":[2147483647,0,0,1,1,2,2,3,3,4,4,5,5,6,6],"right_children":[2,4,6,8,10,12,14,-1,-1,-1,-1,-1,-1,-1,-1],"split_conditions":[1.3806239E0,-1.2735996E0,-4.2528388E-1,2.0812144E0,-1.21286534E-1,-4.7246003E-1,2.0812144E0,1.14408135E-1,-4.9330503E-2,-5.9181023E-2,-1.6099496E-2,4.4879418E-2,-1.00283735E-1,7.1156256E-2,-2.0361364E-2],"split_indices":[1,2,5,3,5,5,3,0,0,0,0,0,0,0,0],"split_type":[0,0,0,0,0,0,0,0,0,0,0,0,0,0,0],"sum_hessian":[9.894985E1,6.121817E1,3.7731686E1,5.2326655E0,5.5985504E1,9.7967415E0,2.7934944E1,3.3906133E0,1.842052E0,3.828223E1,1.7703276E1,7.3685493E0,2.428192E0,2.538544E1,2.549503E0],"tree_param":{"num_deleted":"0","num_feature":"7","num_nodes":"15","size_leaf_vector":"1"}},{"base_weights":[1.0920751E-1,6.3103787E-3,3.5471842E-1,-3.9512664E-2,6.1767954E-1,6.830791E-1,1.26438E-1,5.4492485E-2,-9.032591E-3,-1.0962421E-2,8.4875576E-2,8.376876E-2,-9.204035E-3,-6.2301583E-3,5.8959067E-2],"categories":[],"categories_nodes":[],"categories_segments":[],"categories_sizes":[],"default_left":[0,0,0,0,0,0,0,0,0,0,0,0,0,0,0],"id":20,"left_children":[1,3,5,7,9,11,13,-1,-1,-1,-1,-1,-1,-1,-1],"loss_changes":[2.505587E0,2.0126452E0,2.1099236E0,2.037815E0,9.348049E-1,1.4898896E0,1.6548946E0,0E0,0E0,0E0,0E0,0E0,0E0,0E0,0E0],"parents":[2147483647,0,0,1,1,2,2,3,3,4,4,5,5,6,6],"right_children":[2,4,6,8,10,12,14,-1,-1,-1,-1,-1,-1,-1,-1],"split_conditions":[1.0446225E0,8.975739E-1,1.2390225E-2,-1.7356564E0,-5.035051E-1,8.6074764E-1,3.7992316E-1,5.4492485E-2,-9.032591E-3,-1.0962421E-2,8.4875576E-2,8.376876E-2,-9.204035E-3,-6.2301583E-3,5.8959067E-2],"split_indices":[6,5,2,2,2,5,3,0,0,0,0,0,0,0,0],"split_type":[0,0,0,0,0,0,0,0,0,0,0,0,0,0,0],"sum_hessian":[9.82712E1,6.997104E1,2.8300163E1,6.5962425E1,4.008613E0,1.0788951E1,1.7511211E1,4.4984646E0,6.1463963E1,1.0932484E0,2.9153647E0,8.927512E0,1.8614383E0,1.3056169E1,4.455043E0],"tree_param":{"num_deleted":"0","num_feature":"7","num_nodes":"15","size_leaf_vector":"1"}},{"base_weights":[-7.183744E-2,-3.420079E-1,4.1583747E-1,-1.3042593E-1,-4.1752955E-1,8.375257E-1,6.00965E-2,-2.310638E-2,7.403977E-3,-7.362234E-2,-2.7913412E-2,9.262472E-2,1.5279867E-2,1.5424648E-2,-2.6330663E-2],"categories":[],"categories_nodes":[],"categories_segments":[],"categories_sizes":[],"default_left":[0,0,0,0,0,0,0,0,0,0,0,0,0,0,0],"id":21,"left_children":[1,3,5,7,9,11,13,-1,-1,-1,-1,-1,-1,-1,-1],"loss_changes":[1.2856677E1,9.465804E-1,5.17811E0,3.8612226E-1,1.8107285E0,8.2264423E-1,6.490443E-1,0E0,0E0,0E0,0E0,0E0,0E0,0E0,0E0],"parents":[2147483647,0,0,1,1,2,2,3,3,4,4,5,5,6,6],"right_children":[2,4,6,8,10,12,14,-1,-1,-1,-1,-1,-1,-1,-1],"split_conditions":[1.3806239E0,-4.0055117E-1,8.1303364E-1,1.0446225E0,8.1303364E-1,2.0487416E0,2.0487416E0,-2.310638E-2,7.403977E-3,-7.362234E-2,-2.7913412E-2,9.262472E-2,1.5279867E-2,1.5424648E-2,-2.6330663E-2],"split_indices":[1,0,0,6,0,4,4,0,0,0,0,0,0,0,0],"split_type":[0,0,0,0,0,0,0,0,0,0,0,0,0,0,0],"sum_hessian":[9.5500496E1,6.1646957E1,3.385354E1,1.6933352E1,4.4713604E1,1.48712E1,1.8982338E1,1.1260739E1,5.672612E0,1.2230282E1,3.2483322E1,1.2853078E1,2.0181217E0,1.5107309E1,3.875028E0],"tree_param":{"num_deleted":"0","num_feature":"7","num_nodes":"15","size_leaf_vector":"1"}},{"base_weights":[-1.3423122E-2,-2.382987E-1,3.805073E-1,8.593847E-1,-3.2991207E-1,2.0127112E-1,6.890938E-1,1.08991764E-1,6.2748054E-3,-1.0142985E-2,-4.1898258E-2,7.7539675E-2,9.78903E-3,-1.2300213E-2,8.045541E-2],"categories":[],"categories_nodes":[],"categories_segments":[],"categories_sizes":[],"default_left":[0,0,0,0,0,0,0,0,0,0,0,0,0,0,0],"id":22,"left_children":[1,3,5,7,9,11,13,-1,-1,-1,-1,-1,-1,-1,-1],"loss_changes":[8.511824E0,6.431058E0,1.7933378E0,8.4737706E-1,1.1204629E0,1.3194542E0,1.263689E0,0E0,0E0,0E0,0E0,0E0,0E0,0E0,0E0],"parents":[2147483647,0,0,1,1,2,2,3,3,4,4,5,5,6,6],"right_children":[2,4,6,8,10,12,14,-1,-1,-1,-1,-1,-1,-1,-1],"split_conditions":[1.3806239E0,-1.7356564E0,3.556101E-2,1.2305688E0,-1.1845789E-1,-4.784774E-1,-4.382814E-1,1.08991764E-1,6.2748054E-3,-1.0142985E-2,-4.1898258E-2,7.7539675E-2,9.78903E-3,-1.2300213E-2,8.045541E-2],"split_indices":[1,2,2,3,2,5,5,0,0,0,0,0,0,0,0],"split_type":[0,0,0,0,0,0,0,0,0,0,0,0,0,0,0],"sum_hessian":[9.406257E1,6.0131508E1,3.3931057E1,3.9864562E0,5.6145054E1,2.2509254E1,1.1421803E1,2.8062317E0,1.1802244E0,1.6348051E1,3.9797E1,2.4427946E0,2.006646E1,1.4136304E0,1.0008173E1],"tree_param":{"num_deleted":"0","num_feature":"7","num_nodes":"15","size_leaf_vector":"1"}},{"base_weights":[4.5418017E-2,6.359817E-1,-1.2552582E-3,9.757802E-2,-2.108916E-2,-9.7122215E-2,2.3551285E-1,1.0627417E-3,-3.0267159E-2,3.467376E-2,-2.5898753E-2],"categories":[],"categories_nodes":[],"categories_segments":[],"categories_sizes":[],"default_left":[0,0,0,0,0,0,0,0,0,0,0],"id":23,"left_children":[1,3,5,-1,-1,7,9,-1,-1,-1,-1],"loss_changes":[2.68638E0,2.2599251E0,2.0950902E0,0E0,0E0,1.4581274E0,1.5530041E0,0E0,0E0,0E0,0E0],"parents":[2147483647,0,0,1,1,2,2,5,5,6,6],"right_children":[2,4,6,-1,-1,8,10,-1,-1,-1,-1],"split_conditions":[-1.8126658E0,2.0812144E0,1.0446225E0,9.757802E-2,-2.108916E-2,3.7992316E-1,7.8470004E-1,1.0627417E-3,-3.0267159E-2,3.467376E-2,-2.5898753E-2],"split_indices":[2,3,6,0,0,3,4,0,0,0,0],"split_type":[0,0,0,0,0,0,0,0,0,0,0],"sum_hessian":[9.643238E1,6.1382294E0,9.029415E1,4.271944E0,1.8662852E0,6.469078E1,2.5603374E1,4.3064518E1,2.1626263E1,2.1145964E1,4.457411E0],"tree_param":{"num_deleted":"0","num_feature":"7","num_nodes":"11","size_leaf_vector":"1"}},{"base_weights":[1.0374044E-2,-2.4129969E-1,4.584618E-1,5.1386994E-1,-3.1832016E-1,9.1986144E-1,1.1847828E-1,1.2003066E-1,-5.5566855E-2,-1.0580771E-2,-4.04572E-2,9.692737E-2,1.8968176E-2,-1.0618858E-2,9.161257E-2],"categories":[],"categories_nodes":[],"categories_segments":[],"categories_sizes":[],"default_left":[0,0,0,0,0,0,0,0,0,0,0,0,0,0,0],"id":24,"left_children":[1,3,5,7,9,11,13,-1,-1,-1,-1,-1,-1,-1,-1],"loss_changes":[1.1124433E1,3.8391576E0,5.4552093E0,5.24174E0,1.0196271E0,3.5374928E-1,3.962753E0,0E0,0E0,0E0,0E0,0E0,0E0,0E0,0E0],"parents":[2147483647,0,0,1,1,2,2,3,3,4,4,5,5,6,6],"right_children":[2,4,6,8,10,12,14,-1,-1,-1,-1,-1,-1,-1,-1],"split_conditions":[1.3806239E0,-1.2735996E0,8.1303364E-1,2.0812144E0,-4.0055117E-1,1.57575E0,2.6372802E0,1.2003066E-1,-5.5566855E-2,-1.0580771E-2,-4.04572E-2,9.692737E-2,1.8968176E-2,-1.0618858E-2,9.161257E-2],"split_indices":[1,2,0,3,0,2,6,0,0,0,0,0,0,0,0],"split_type":[0,0,0,0,0,0,0,0,0,0,0,0,0,0,0],"sum_hessian":[9.666444E1,6.2193962E1,3.4470478E1,5.231207E0,5.6962757E1,1.3900362E1,2.0570114E1,3.1117806E0,2.1194263E0,1.7087723E1,3.987503E1,1.2712636E1,1.1877257E0,1.6725931E1,3.8441844E0],"tree_param":{"num_deleted":"0","num_feature":"7","num_nodes":"15","size_leaf_vector":"1"}},{"base_weights":[-6.238917E-2,-3.3316836E-1,4.0771154E-1,-6.748686E-2,-2.741763E-1,8.111851E-2,1.3274932E-1,3.3288494E-2,-3.2715604E-2,3.6434937E-2,-9.700919E-2],"categories":[],"categories_nodes":[],"categories_segments":[],"categories_sizes":[],"default_left":[0,0,0,0,0,0,0,0,0,0,0],"id":25,"left_children":[1,3,5,-1,7,-1,9,-1,-1,-1,-1],"loss_changes":[1.201052E1,1.019217E0,3.7246385E0,0E0,1.8016052E0,0E0,5.9061007E0,0E0,0E0,0E0,0E0],"parents":[2147483647,0,0,1,1,2,2,4,4,6,6],"right_children":[2,4,6,-1,8,-1,10,-1,-1,-1,-1],"split_conditions":[1.3806239E0,-4.782367E-1,8.1303364E-1,-6.748686E-2,-4.772739E-1,8.111851E-2,-1.9373561E-1,3.3288494E-2,-3.2715604E-2,3.6434937E-2,-9.700919E-2],"split_indices":[1,5,0,0,5,0,5,0,0,0,0],"split_type":[0,0,0,0,0,0,0,0,0,0,0],"sum_hessian":[9.228587E1,5.8741756E1,3.3544117E1,7.111242E0,5.1630516E1,1.2804664E1,2.0739452E1,3.7201726E0,4.7910343E1,1.7693409E1,3.0460434E0],"tree_param":{"num_deleted":"0","num_feature":"7","num_nodes":"11","size_leaf_vector":"1"}},{"base_weights":[1.6913418E-2,-1.3982916E-1,2.922305E-1,-5.302452E-1,-8.796864E-4,7.227974E-1,9.655301E-4,-2.421528E-2,-6.2694944E-2,1.6149049E-1,-8.299565E-3,8.4365696E-2,-3.2348383E-2,6.2170435E-2,-3.335556E-2],"categories":[],"categories_nodes":[],"categories_segments":[],"categories_sizes":[],"default_left":[0,0,0,0,0,0,0,0,0,0,0,0,0,0,0],"id":26,"left_children":[1,3,5,7,9,11,13,-1,-1,-1,-1,-1,-1,-1,-1],"loss_changes":[4.0204268E0,3.2240129E0,4.2354255E0,2.828002E-1,6.083383E0,1.9962802E0,4.5991583E0,0E0,0E0,0E0,0E0,0E0,0E0,0E0,0E0],"parents":[2147483647,0,0,1,1,2,2,3,3,4,4,5,5,6,6],"right_children":[2,4,6,8,10,12,14,-1,-1,-1,-1,-1,-1,-1,-1],"split_conditions":[1.3806239E0,-4.7486696E-1,8.1303364E-1,-4.8826498E-1,-4.7286054E-1,2.2907145E0,-4.7286054E-1,-2.421528E-2,-6.2694944E-2,1.6149049E-1,-8.299565E-3,8.4365696E-2,-3.2348383E-2,6.2170435E-2,-3.335556E-2],"split_indices":[1,5,0,5,5,5,5,0,0,0,0,0,0,0,0],"split_type":[0,0,0,0,0,0,0,0,0,0,0,0,0,0,0],"sum_hessian":[9.121794E1,5.8439487E1,3.2778454E1,1.4600196E1,4.383929E1,1.262854E1,2.0149916E1,4.5498266E0,1.0050369E1,1.2174546E0,4.2621838E1,1.1494439E1,1.1341009E0,6.755637E0,1.3394278E1],"tree_param":{"num_deleted":"0","num_feature":"7","num_nodes":"15","size_leaf_vector":"1"}},{"base_weights":[3.6216363E-2,-1.3864653E-1,3.2963786E-1,1.2915157E-1,-2.7974796E-1,6.6939473E-1,1.2858294E-1,-1.7324863E-3,1.2721792E-1,-8.624604E-2,-2.2446482E-2,2.365104E-2,8.875331E-2,3.148541E-2,-1.3323681E-2],"categories":[],"categories_nodes":[],"categories_segments":[],"categories_sizes":[],"default_left":[0,0,0,0,0,0,0,0,0,0,0,0,0,0,0],"id":27,"left_children":[1,3,5,7,9,11,13,-1,-1,-1,-1,-1,-1,-1,-1],"loss_changes":[4.74476E0,2.2311428E0,2.270255E0,3.4927044E0,1.0421479E0,9.785857E-1,1.1591883E0,0E0,0E0,0E0,0E0,0E0,0E0,0E0,0E0],"parents":[2147483647,0,0,1,1,2,2,3,3,4,4,5,5,6,6],"right_children":[2,4,6,8,10,12,14,-1,-1,-1,-1,-1,-1,-1,-1],"split_conditions":[1.3806239E0,-1.1845789E-1,8.1303364E-1,-1.9546734E-1,-4.144844E-2,-1.1845789E-1,3.7992316E-1,-1.7324863E-3,1.2721792E-1,-8.624604E-2,-2.2446482E-2,2.365104E-2,8.875331E-2,3.148541E-2,-1.3323681E-2],"split_indices":[1,2,0,2,2,2,3,0,0,0,0,0,0,0,0],"split_type":[0,0,0,0,0,0,0,0,0,0,0,0,0,0,0],"sum_hessian":[9.058431E1,5.708958E1,3.349473E1,1.972947E1,3.736011E1,1.1586176E1,2.1908558E1,1.8361347E1,1.3681227E0,1.9721255E0,3.5387985E1,4.5805454E0,7.005631E0,1.2682825E1,9.225732E0],"tree_param":{"num_deleted":"0","num_feature":"7","num_nodes":"15","size_leaf_vector":"1"}},{"base_weights":[6.4015895E-2,-1.0377343E-1,3.6621678E-1,6.1328375E-1,-1.7528553E-1,1.7489636E-1,5.3197896E-1,1.1626891E-1,-4.1532595E-2,-2.1653095E-2,2.8781299E-2,3.7666038E-2,-9.315022E-2,7.072904E-2,-1.2554315E-2],"categories":[],"categories_nodes":[],"categories_segments":[],"categories_sizes":[],"default_left":[0,0,0,0,0,0,0,0,0,0,0,0,0,0,0],"id":28,"left_children":[1,3,5,7,9,11,13,-1,-1,-1,-1,-1,-1,-1,-1],"loss_changes":[4.612568E0,3.1220648E0,9.3539906E-1,3.6213412E0,1.0982428E0,4.043932E0,2.035172E0,0E0,0E0,0E0,0E0,0E0,0E0,0E0,0E0],"parents":[2147483647,0,0,1,1,2,2,3,3,4,4,5,5,6,6],"right_children":[2,4,6,8,10,12,14,-1,-1,-1,-1,-1,-1,-1,-1],"split_conditions":[1.3806239E0,-1.2735996E0,-3.2900602E-1,1.2305688E0,1.0381396E0,-3.6053702E-1,1.2305688E0,1.1626891E-1,-4.1532595E-2,-2.1653095E-2,2.8781299E-2,3.7666038E-2,-9.315022E-2,7.072904E-2,-1.2554315E-2],"split_indices":[1,2,5,3,5,5,3,0,0,0,0,0,0,0,0],"split_type":[0,0,0,0,0,0,0,0,0,0,0,0,0,0,0],"sum_hessian":[8.921726E1,5.7788357E1,3.1428902E1,4.553557E0,5.3234802E1,1.5543692E1,1.588521E1,2.883213E0,1.6703438E0,4.937013E1,3.8646724E0,1.370415E1,1.8395416E0,1.2481617E1,3.403593E0],"tree_param":{"num_deleted":"0","num_feature":"7","num_nodes":"15","size_leaf_vector":"1"}},{"base_weights":[-5.039533E-2,-2.2032943E-1,2.3376544E-1,-4.690023E-1,-1.288803E-1,7.998391E-1,-8.0237955E-2,-2.7443135E-2,-8.803982E-2,1.204377E-1,-2.1116441E-2,8.500344E-2,2.3616254E-2,9.818959E-3,-6.573959E-2],"categories":[],"categories_nodes":[],"categories_segments":[],"categories_sizes":[],"default_left":[0,0,0,0,0,0,0,0,0,0,0,0,0,0,0],"id":29,"left_children":[1,3,5,7,9,11,13,-1,-1,-1,-1,-1,-1,-1,-1],"loss_changes":[4.2934227E0,1.2013566E0,5.9937305E0,9.222295E-1,4.856078E0,1.3859367E-1,2.3677912E0,0E0,0E0,0E0,0E0,0E0,0E0,0E0,0E0],"parents":[2147483647,0,0,1,1,2,2,3,3,4,4,5,5,6,6],"right_children":[2,4,6,8,10,12,14,-1,-1,-1,-1,-1,-1,-1,-1],"split_conditions":[1.3806239E0,-4.7486696E-1,8.1303364E-1,-4.7574887E-1,-4.7286054E-1,2.2907145E0,-2.3128399E-1,-2.7443135E-2,-8.803982E-2,1.204377E-1,-2.1116441E-2,8.500344E-2,2.3616254E-2,9.818959E-3,-6.573959E-2],"split_indices":[1,5,0,5,5,5,5,0,0,0,0,0,0,0,0],"split_type":[0,0,0,0,0,0,0,0,0,0,0,0,0,0,0],"sum_hessian":[8.68451E1,5.4485973E1,3.2359127E1,1.3539675E1,4.09463E1,1.0993401E1,2.1365725E1,1.0323986E1,3.2156882E0,1.5874755E0,3.9358826E1,9.62801E0,1.3653907E0,1.6954226E1,4.4115005E0],"tree_param":{"num_deleted":"0","num_feature":"7","num_nodes":"15","size_leaf_vector":"1"}},{"base_weights":[-4.6427593E-2,-2.2576085E-1,2.5891778E-1,-1.6173853E-1,-7.972416E-2,6.940213E-2,1.0331191E-2,-1.1504094E-2,-8.319113E-2,-1.5608168E-2,6.1135765E-2],"categories":[],"categories_nodes":[],"categories_segments":[],"categories_sizes":[],"default_left":[0,0,0,0,0,0,0,0,0,0,0],"id":30,"left_children":[1,3,5,7,-1,-1,9,-1,-1,-1,-1],"loss_changes":[4.740209E0,1.861331E0,3.4648468E0,1.4744511E0,0E0,0E0,2.2402196E0,0E0,0E0,0E0,0E0],"parents":[2147483647,0,0,1,1,2,2,3,3,6,6],"right_children":[2,4,6,8,-1,-1,10,-1,-1,-1,-1],"split_conditions":[1.3806239E0,2.6372802E0,8.1303364E-1,2.0812144E0,-7.972416E-2,6.940213E-2,2.6372802E0,-1.1504094E-2,-8.319113E-2,-1.5608168E-2,6.1135765E-2],"split_indices":[1,6,0,3,0,0,6,0,0,0,0],"split_type":[0,0,0,0,0,0,0,0,0,0,0],"sum_hessian":[8.449812E1,5.3397644E1,3.1100485E1,4.9171978E1,4.2256627E0,1.0656478E1,2.0444006E1,4.706421E1,2.1077724E0,1.659067E1,3.8533351E0],"tree_param":{"num_deleted":"0","num_feature":"7","num_nodes":"11","size_leaf_vector":"1"}},{"base_weights":[-4.2167354E-2,1.7113502E-1,-2.0048876E-1,1.9465804E-2,5.401816E-1,1.1310186E-1,-3.171053E-1,-6.441495E-2,7.661354E-3,6.7786604E-2,-2.7906815E-2,5.0247844E-2,-2.5838843E-2,-9.0473674E-2,-2.0228462E-2],"categories":[],"categories_nodes":[],"categories_segments":[],"categories_sizes":[],"default_left":[0,0,0,0,0,0,0,0,0,0,0,0,0,0,0],"id":31,"left_children":[1,3,5,7,9,11,13,-1,-1,-1,-1,-1,-1,-1,-1],"loss_changes":[2.8515034E0,2.0089622E0,1.8037474E0,1.0584341E0,1.370336E0,2.1319828E0,2.2123356E0,0E0,0E0,0E0,0E0,0E0,0E0,0E0,0E0],"parents":[2147483647,0,0,1,1,2,2,3,3,4,4,5,5,6,6],"right_children":[2,4,6,8,10,12,14,-1,-1,-1,-1,-1,-1,-1,-1],"split_conditions":[8.1303364E-1,1.3806239E0,-4.772739E-1,-5.0736076E-1,2.2907145E0,1.0446225E0,-4.7486696E-1,-6.441495E-2,7.661354E-3,6.7786604E-2,-2.7906815E-2,5.0247844E-2,-2.5838843E-2,-9.0473674E-2,-2.0228462E-2],"split_indices":[0,1,5,5,5,6,5,0,0,0,0,0,0,0,0],"split_type":[0,0,0,0,0,0,0,0,0,0,0,0,0,0,0],"sum_hessian":[8.2422104E1,3.5079483E1,4.734262E1,2.5607973E1,9.471512E0,1.2841366E1,3.450126E1,1.2159835E0,2.4391989E1,8.25649E0,1.2150218E0,6.0975904E0,6.7437754E0,4.514958E0,2.99863E1],"tree_param":{"num_deleted":"0","num_feature":"7","num_nodes":"15","size_leaf_vector":"1"}},{"base_weights":[4.4913623E-3,4.000151E-2,-4.80129E-1,7.7221817E-1,-1.7936053E-2,2.5147626E-2,-6.9019385E-2,9.189948E-2,1.2847597E-2,-6.1689157E-2,8.0529426E-4],"categories":[],"categories_nodes":[],"categories_segments":[],"categories_sizes":[],"default_left":[0,0,0,0,0,0,0,0,0,0,0],"id":32,"left_children":[1,3,5,7,9,-1,-1,-1,-1,-1,-1],"loss_changes":[1.5368836E0,3.538908E0,1.1107148E0,4.59759E-1,1.2187912E0,0E0,0E0,0E0,0E0,0E0,0E0],"parents":[2147483647,0,0,1,1,2,2,3,3,4,4],"right_children":[2,4,6,8,10,-1,-1,-1,-1,-1,-1],"split_conditions":[2.0812144E0,-1.504628E0,-2.1002199E-1,-9.0236925E-2,-4.9315977E-1,2.5147626E-2,-6.9019385E-2,9.189948E-2,1.2847597E-2,-6.1689157E-2,8.0529426E-4],"split_indices":[3,2,5,5,5,0,0,0,0,0,0],"split_type":[0,0,0,0,0,0,0,0,0,0,0],"sum_hessian":[8.719123E1,8.209337E1,5.097864E0,5.115468E0,7.69779E1,1.0932391E0,4.0046253E0,3.8174808E0,1.2979873E0,2.2556815E0,7.472221E1],"tree_param":{"num_deleted":"0","num_feature":"7","num_nodes":"11","size_leaf_vector":"1"}},{"base_weights":[-2.756637E-2,-1.4809401E-1,1.9063826E-1,6.239843E-1,-2.2098699E-1,4.3239817E-2,6.7430353E-1,9.1315575E-2,1.9510634E-2,-3.0764652E-2,1.8183453E-3,-1.2592605E-2,3.0979637E-2,7.710151E-2,4.9898047E-3],"categories":[],"categories_nodes":[],"categories_segments":[],"categories_sizes":[],"default_left":[0,0,0,0,0,0,0,0,0,0,0,0,0,0,0],"id":33,"left_children":[1,3,5,7,9,11,13,-1,-1,-1,-1,-1,-1,-1,-1],"loss_changes":[2.2254615E0,3.1984253E0,2.1213126E0,4.36085E-1,1.0507956E0,1.129677E0,3.8285136E-1,0E0,0E0,0E0,0E0,0E0,0E0,0E0,0E0],"parents":[2147483647,0,0,1,1,2,2,3,3,4,4,5,5,6,6],"right_children":[2,4,6,8,10,12,14,-1,-1,-1,-1,-1,-1,-1,-1],"split_conditions":[1.3806239E0,-1.504628E0,1.1257046E-1,-2.2310036E-1,1.0446225E0,1.0446225E0,1.0446225E0,9.1315575E-2,1.9510634E-2,-3.0764652E-2,1.8183453E-3,-1.2592605E-2,3.0979637E-2,7.710151E-2,4.9898047E-3],"split_indices":[1,2,2,5,6,6,6,0,0,0,0,0,0,0,0],"split_type":[0,0,0,0,0,0,0,0,0,0,0,0,0,0,0],"sum_hessian":[8.2545815E1,5.3381363E1,2.9164455E1,3.9528384E0,4.9428524E1,2.318742E1,5.9770355E0,1.6865236E0,2.2663147E0,3.6072083E1,1.3356439E1,1.4507835E1,8.6795845E0,4.9721255E0,1.00491E0],"tree_param":{"num_deleted":"0","num_feature":"7","num_nodes":"15","size_leaf_vector":"1"}},{"base_weights":[-2.8976878E-2,-1.7181459E-1,2.4188653E-1,-5.7769257E-1,-8.982574E-2,5.8189064E-1,6.5920554E-2,-1.1358104E-2,-6.271464E-2,1.08836554E-1,-1.4809789E-2,7.30493E-2,-1.607312E-2,8.710822E-2,-8.881403E-3],"categories":[],"categories_nodes":[],"categories_segments":[],"categories_sizes":[],"default_left":[0,0,0,0,0,0,0,0,0,0,0,0,0,0,0],"id":34,"left_children":[1,3,5,7,9,11,13,-1,-1,-1,-1,-1,-1,-1,-1],"loss_changes":[3.2023883E0,1.7475717E0,1.674117E0,1.3312006E-1,3.3310962E0,1.1805458E0,2.5677261E0,0E0,0E0,0E0,0E0,0E0,0E0,0E0,0E0],"parents":[2147483647,0,0,1,1,2,2,3,3,4,4,5,5,6,6],"right_children":[2,4,6,8,10,12,14,-1,-1,-1,-1,-1,-1,-1,-1],"split_conditions":[1.3806239E0,-4.777553E-1,8.1303364E-1,-5.0736076E-1,-4.772739E-1,2.0487416E0,-4.784774E-1,-1.1358104E-2,-6.271464E-2,1.08836554E-1,-1.4809789E-2,7.30493E-2,-1.607312E-2,8.710822E-2,-8.881403E-3],"split_indices":[1,5,0,5,5,4,5,0,0,0,0,0,0,0,0],"split_type":[0,0,0,0,0,0,0,0,0,0,0,0,0,0,0],"sum_hessian":[8.0697296E1,5.307453E1,2.7622765E1,7.903419E0,4.5171112E1,8.633722E0,1.8989042E1,1.0785166E0,6.8249025E0,1.295731E0,4.387538E1,7.207748E0,1.4259739E0,2.3147442E0,1.66743E1],"tree_param":{"num_deleted":"0","num_feature":"7","num_nodes":"15","size_leaf_vector":"1"}},{"base_weights":[2.198622E-2,5.946711E-1,-3.277736E-2,1.8822826E-1,9.6702605E-2,-4.1565356E-1,3.1201012E-2,7.718877E-2,-6.8668865E-2,8.063882E-3,-9.2688166E-2,2.0892793E-2,-3.5693578E-3],"categories":[],"categories_nodes":[],"categories_segments":[],"categories_sizes":[],"default_left":[0,0,0,0,0,0,0,0,0,0,0,0,0],"id":35,"left_children":[1,3,5,7,-1,9,11,-1,-1,-1,-1,-1,-1],"loss_changes":[2.6183832E0,9.204726E-1,1.8889047E0,2.9427211E0,0E0,2.8743849E0,7.986387E-1,0E0,0E0,0E0,0E0,0E0,0E0],"parents":[2147483647,0,0,1,1,2,2,3,3,5,5,6,6],"right_children":[2,4,6,8,-1,10,12,-1,-1,-1,-1,-1,-1],"split_conditions":[-1.7356564E0,-2.043694E0,-7.345335E-1,-2.1207035E0,9.6702605E-2,-8.8855237E-1,-4.7286054E-1,7.718877E-2,-6.8668865E-2,8.063882E-3,-9.2688166E-2,2.0892793E-2,-3.5693578E-3],"split_indices":[2,2,2,2,0,2,5,0,0,0,0,0,0],"split_type":[0,0,0,0,0,0,0,0,0,0,0,0,0],"sum_hessian":[8.186679E1,6.284837E0,7.5581955E1,3.7246811E0,2.5601559E0,1.003444E1,6.5547516E1,2.304861E0,1.4198201E0,5.5189714E0,4.5154686E0,1.7344105E1,4.820341E1],"tree_param":{"num_deleted":"0","num_feature":"7","num_nodes":"13","size_leaf_vector":"1"}},{"base_weights":[2.186125E-2,-1.6930187E-1,3.6838323E-1,5.610657E-1,-2.2393951E-1,1.5738752E-1,6.0639083E-1,9.34494E-2,-1.8725863E-2,2.0761464E-3,-3.3924427E-2,4.4443525E-2,-3.0840874E-2,7.623932E-2,-3.6083158E-2],"categories":[],"categories_nodes":[],"categories_segments":[],"categories_sizes":[],"default_left":[0,0,0,0,0,0,0,0,0,0,0,0,0,0,0],"id":36,"left_children":[1,3,5,7,9,11,13,-1,-1,-1,-1,-1,-1,-1,-1],"loss_changes":[5.525415E0,2.2739635E0,1.3928237E0,1.3017946E0,1.4404535E0,2.4180622E0,2.323547E0,0E0,0E0,0E0,0E0,0E0,0E0,0E0,0E0],"parents":[2147483647,0,0,1,1,2,2,3,3,4,4,5,5,6,6],"right_children":[2,4,6,8,10,12,14,-1,-1,-1,-1,-1,-1,-1,-1],"split_conditions":[1.3806239E0,-1.504628E0,1.2390225E-2,1.2305688E0,-4.0055117E-1,3.7992316E-1,2.0487416E0,9.34494E-2,-1.8725863E-2,2.0761464E-3,-3.3924427E-2,4.4443525E-2,-3.0840874E-2,7.623932E-2,-3.6083158E-2],"split_indices":[1,2,2,3,0,3,4,0,0,0,0,0,0,0,0],"split_type":[0,0,0,0,0,0,0,0,0,0,0,0,0,0,0],"sum_hessian":[8.1470764E1,5.283507E1,2.863569E1,3.03228E0,4.980279E1,1.6059807E1,1.2575884E1,1.8568794E0,1.1754006E0,1.6213747E1,3.3589043E1,9.964827E0,6.0949817E0,1.1011603E1,1.56428E0],"tree_param":{"num_deleted":"0","num_feature":"7","num_nodes":"15","size_leaf_vector":"1"}},{"base_weights":[6.9329284E-2,2.2006668E-1,-5.916373E-2,7.4865973E-1,-2.9650925E-2,-1.7989634E-1,7.450269E-1,8.5961364E-2,-1.0758525E-3,5.0596636E-2,-1.7862929E-2,-7.058917E-2,-1.006602E-2,2.456371E-2,1.04378335E-1],"categories":[],"categories_nodes":[],"categories_segments":[],"categories_sizes":[],"default_left":[0,0,0,0,0,0,0,0,0,0,0,0,0,0,0],"id":37,"left_children":[1,3,5,7,9,11,13,-1,-1,-1,-1,-1,-1,-1,-1],"loss_changes":[1.5944178E0,5.0095544E0,4.4899435E0,1.0339136E0,2.21474E0,1.5882689E0,6.463454E-1,0E0,0E0,0E0,0E0,0E0,0E0,0E0,0E0],"parents":[2147483647,0,0,1,1,2,2,3,3,4,4,5,5,6,6],"right_children":[2,4,6,8,10,12,14,-1,-1,-1,-1,-1,-1,-1,-1],"split_conditions":[1.2390225E-2,-4.608258E-1,8.2151437E-1,2.6372802E0,-1.7356564E0,-4.7855827E-1,3.7992316E-1,8.5961364E-2,-1.0758525E-3,5.0596636E-2,-1.7862929E-2,-7.058917E-2,-1.006602E-2,2.456371E-2,1.04378335E-1],"split_indices":[2,5,5,6,2,5,3,0,0,0,0,0,0,0,0],"split_type":[0,0,0,0,0,0,0,0,0,0,0,0,0,0,0],"sum_hessian":[8.064707E1,3.6783287E1,4.386379E1,1.11607E1,2.5622585E1,3.8813103E1,5.0506845E0,9.622831E0,1.5378687E0,5.054404E0,2.0568182E1,4.0459642E0,3.476714E1,2.572609E0,2.4780755E0],"tree_param":{"num_deleted":"0","num_feature":"7","num_nodes":"15","size_leaf_vector":"1"}},{"base_weights":[-3.0400466E-2,4.660154E-2,-3.2600164E-1,-3.881216E-2,5.822776E-1,-5.538869E-2,-5.9256613E-1,6.635876E-2,-7.6659443E-3,1.5213077E-1,2.039997E-2,6.3740276E-3,-4.2086888E-2,-8.036188E-2,-1.0792738E-3],"categories":[],"categories_nodes":[],"categories_segments":[],"categories_sizes":[],"default_left":[0,0,0,0,0,0,0,0,0,0,0,0,0,0,0],"id":38,"left_children":[1,3,5,7,9,11,13,-1,-1,-1,-1,-1,-1,-1,-1],"loss_changes":[1.8300849E0,2.9568555E0,1.1648377E0,1.5461917E0,2.8446455E0,4.335687E-1,1.0056362E0,0E0,0E0,0E0,0E0,0E0,0E0,0E0,0E0],"parents":[2147483647,0,0,1,1,2,2,3,3,4,4,5,5,6,6],"right_children":[2,4,6,8,10,12,14,-1,-1,-1,-1,-1,-1,-1,-1],"split_conditions":[7.2864604E-1,1.895799E-1,-4.0055117E-1,-2.1207035E0,2.6658934E-1,2.422854E0,1.3806239E0,6.635876E-2,-7.6659443E-3,1.5213077E-1,2.039997E-2,6.3740276E-3,-4.2086888E-2,-8.036188E-2,-1.0792738E-3],"split_indices":[2,2,0,2,2,2,1,0,0,0,0,0,0,0,0],"split_type":[0,0,0,0,0,0,0,0,0,0,0,0,0,0,0],"sum_hessian":[7.8733864E1,6.313103E1,1.5602836E1,5.5249092E1,7.881938E0,8.341965E0,7.2608714E0,1.979458E0,5.3269634E1,1.3956747E0,6.4862633E0,6.913948E0,1.4280162E0,5.0481896E0,2.212682E0],"tree_param":{"num_deleted":"0","num_feature":"7","num_nodes":"15","size_leaf_vector":"1"}},{"base_weights":[-2.7817125E-2,-1.0207762E-1,3.5977903E-1,-3.4577572E-3,-3.9078495E-1,-5.118236E-1,6.537909E-1,-4.859244E-3,9.257873E-2,-9.225801E-2,-1.5323739E-2,-8.275425E-2,1.3176262E-2,1.1492665E-1,-9.860047E-3],"categories":[],"categories_nodes":[],"categories_segments":[],"categories_sizes":[],"default_left":[0,0,0,0,0,0,0,0,0,0,0,0,0,0,0],"id":39,"left_children":[1,3,5,7,9,11,13,-1,-1,-1,-1,-1,-1,-1,-1],"loss_changes":[2.3071597E0,1.9056315E0,3.64143E0,2.1811497E0,2.0117974E0,8.843763E-1,3.8741307E0,0E0,0E0,0E0,0E0,0E0,0E0,0E0,0E0],"parents":[2147483647,0,0,1,1,2,2,3,3,4,4,5,5,6,6],"right_children":[2,4,6,8,10,12,14,-1,-1,-1,-1,-1,-1,-1,-1],"split_conditions":[3.844938E-1,2.2808464E-1,-3.8799095E-1,1.895799E-1,-4.4285458E-1,1.3806239E0,1.1136934E0,-4.859244E-3,9.257873E-2,-9.225801E-2,-1.5323739E-2,-8.275425E-2,1.3176262E-2,1.1492665E-1,-9.860047E-3],"split_indices":[5,2,2,2,5,1,2,0,0,0,0,0,0,0,0],"split_type":[0,0,0,0,0,0,0,0,0,0,0,0,0,0,0],"sum_hessian":[7.788086E1,6.597684E1,1.1904024E1,4.993236E1,1.6044476E1,2.8157787E0,9.088245E0,4.852323E1,1.4091309E0,4.06359E0,1.1980885E1,1.697312E0,1.1184669E0,5.1616416E0,3.9266038E0],"tree_param":{"num_deleted":"0","num_feature":"7","num_nodes":"15","size_leaf_vector":"1"}},{"base_weights":[-3.251008E-2,-8.888475E-2,4.726767E-4,-6.3630186E-2,3.0772513E-1,-1.4728474E-3,-8.268539E-2,9.964036E-2,4.9454556E-3],"categories":[],"categories_nodes":[],"categories_segments":[],"categories_sizes":[],"default_left":[0,0,0,0,0,0,0,0,0],"id":40,"left_children":[1,-1,3,5,7,-1,-1,-1,-1],"loss_changes":[2.300517E0,0E0,1.5837159E0,2.4711037E0,2.419464E0,0E0,0E0,0E0,0E0],"parents":[2147483647,0,0,2,2,3,3,4,4],"right_children":[2,-1,4,6,8,-1,-1,-1,-1],"split_conditions":[-4.9364114E-1,-8.888475E-2,3.844938E-1,1.3505326E-1,7.117576E-1,-1.4728474E-3,-8.268539E-2,9.964036E-2,4.9454556E-3],"split_indices":[5,0,5,5,5,0,0,0,0],"split_type":[0,0,0,0,0,0,0,0,0],"sum_hessian":[8.043561E1,2.0207834E0,7.8414825E1,6.5534996E1,1.28798275E1,6.254676E1,2.9882345E0,2.7333543E0,1.0146473E1],"tree_param":{"num_deleted":"0","num_feature":"7","num_nodes":"9","size_leaf_vector":"1"}},{"base_weights":[6.0960647E-2,9.53081E-2,-6.211626E-1,-6.065688E-1,1.2639472E-1,3.668741E-2,-1.127499E-1,-9.287665E-3,-8.007586E-2,7.160526E-2,9.668726E-3],"categories":[],"categories_nodes":[],"categories_segments":[],"categories_sizes":[],"default_left":[0,0,0,0,0,0,0,0,0,0,0],"id":41,"left_children":[1,3,5,7,9,-1,-1,-1,-1,-1,-1],"loss_changes":[1.894761E0,1.7230415E0,2.359167E0,2.6206815E-1,1.2109855E0,0E0,0E0,0E0,0E0,0E0,0E0],"parents":[2147483647,0,0,1,1,2,2,3,3,4,4],"right_children":[2,4,6,8,10,-1,-1,-1,-1,-1,-1],"split_conditions":[1.9842293E0,-4.8994985E-1,7.8470004E-1,-5.311895E-1,-4.8786446E-1,3.668741E-2,-1.127499E-1,-9.287665E-3,-8.007586E-2,7.160526E-2,9.668726E-3],"split_indices":[5,5,4,5,5,0,0,0,0,0,0],"split_type":[0,0,0,0,0,0,0,0,0,0,0],"sum_hessian":[7.7344925E1,7.445606E1,2.888864E0,2.3727033E0,7.208336E1,1.0721548E0,1.8167093E0,1.0564207E0,1.3162825E0,2.3492904E0,6.973407E1],"tree_param":{"num_deleted":"0","num_feature":"7","num_nodes":"11","size_leaf_vector":"1"}},{"base_weights":[-6.2352926E-3,6.6688806E-2,-2.7813267E-2,-8.085979E-2,-4.142715E-3,6.795563E-2,-3.0905728E-3],"categories":[],"categories_nodes":[],"categories_segments":[],"categories_sizes":[],"default_left":[0,0,0,0,0,0,0],"id":42,"left_children":[1,-1,3,-1,5,-1,-1],"loss_changes":[1.1710373E0,0E0,1.4353052E0,0E0,1.4218343E0,0E0,0E0],"parents":[2147483647,0,0,2,2,4,4],"right_children":[2,-1,4,-1,6,-1,-1],"split_conditions":[-2.1207035E0,6.6688806E-2,-2.043694E0,-8.085979E-2,-1.8126658E0,6.795563E-2,-3.0905728E-3],"split_indices":[2,0,2,0,2,0,0],"split_type":[0,0,0,0,0,0,0],"sum_hessian":[7.834717E1,1.5046221E0,7.6842545E1,1.2853147E0,7.555723E1,1.9274018E0,7.362983E1],"tree_param":{"num_deleted":"0","num_feature":"7","num_nodes":"7","size_leaf_vector":"1"}},{"base_weights":[5.271556E-2,1.2671159E-1,-4.1328612E-1,1.7685416E-1,-4.6188134E-1,-4.9249658E-1,1.4032449E-2,1.0138511E-1,1.0918323E-2,-8.825757E-2,-1.7574627E-3,-1.8360598E-2,-6.821599E-2],"categories":[],"categories_nodes":[],"categories_segments":[],"categories_sizes":[],"default_left":[0,0,0,0,0,0,0,0,0,0,0,0,0],"id":43,"left_children":[1,3,5,7,9,11,-1,-1,-1,-1,-1,-1,-1],"loss_changes":[2.801448E0,2.1348004E0,5.584649E-1,3.5611398E0,1.0570104E0,4.5968056E-1,0E0,0E0,0E0,0E0,0E0,0E0,0E0],"parents":[2147483647,0,0,1,1,2,2,3,3,4,4,5,5],"right_children":[2,4,6,8,10,12,-1,-1,-1,-1,-1,-1,-1],"split_conditions":[1.1907028E0,2.0812144E0,2.5768728E0,-1.5816374E0,2.0487416E0,1.57575E0,1.4032449E-2,1.0138511E-1,1.0918323E-2,-8.825757E-2,-1.7574627E-3,-1.8360598E-2,-6.821599E-2],"split_indices":[2,3,2,2,4,2,0,0,0,0,0,0,0],"split_type":[0,0,0,0,0,0,0,0,0,0,0,0,0],"sum_hessian":[7.872445E1,6.856514E1,1.0159315E1,6.3827194E1,4.7379446E0,8.984243E0,1.1750714E0,3.7285123E0,6.0098682E1,1.9269705E0,2.8109741E0,4.166552E0,4.8176913E0],"tree_param":{"num_deleted":"0","num_feature":"7","num_nodes":"13","size_leaf_vector":"1"}},{"base_weights":[4.9591452E-2,-1.9055653E-1,1.17416024E-1,-6.8157285E-2,-6.2212296E-2,9.1879934E-2,5.886125E-2,-5.5069614E-2,5.4305573E-3,-3.0242065E-2,1.2009347E-2],"categories":[],"categories_nodes":[],"categories_segments":[],"categories_sizes":[],"default_left":[0,0,0,0,0,0,0,0,0,0,0],"id":44,"left_children":[1,3,5,7,-1,-1,9,-1,-1,-1,-1],"loss_changes":[1.300649E0,8.9071345E-1,2.8465776E0,9.094942E-1,0E0,0E0,1.3343186E0,0E0,0E0,0E0,0E0],"parents":[2147483647,0,0,1,1,2,2,3,3,6,6],"right_children":[2,4,6,8,-1,-1,10,-1,-1,-1,-1],"split_conditions":[-4.7486696E-1,-4.7558904E-1,-4.7246003E-1,-4.9027142E-1,-6.2212296E-2,9.1879934E-2,-4.2528388E-1,-5.5069614E-2,5.4305573E-3,-3.0242065E-2,1.2009347E-2],"split_indices":[5,5,5,5,0,0,5,0,0,0,0],"split_type":[0,0,0,0,0,0,0,0,0,0,0],"sum_hessian":[7.747984E1,1.6664814E1,6.081503E1,1.3884791E1,2.7800226E0,3.1406517E0,5.7674377E1,2.1027014E0,1.178209E1,7.787531E0,4.988685E1],"tree_param":{"num_deleted":"0","num_feature":"7","num_nodes":"11","size_leaf_vector":"1"}},{"base_weights":[-2.9873313E-2,-1.2039569E-1,1.5414993E-1,-2.538648E-1,1.5060477E-1,1.2109178E0,-5.6567363E-2,-1.024416E-2,-5.0297964E-2,-3.504044E-2,2.7635803E-2,1.4547075E-1,2.6757652E-2,1.3150248E-2,-4.6941705E-2],"categories":[],"categories_nodes":[],"categories_segments":[],"categories_sizes":[],"default_left":[0,0,0,0,0,0,0,0,0,0,0,0,0,0,0],"id":45,"left_children":[1,3,5,7,9,11,13,-1,-1,-1,-1,-1,-1,-1,-1],"loss_changes":[1.35925E0,2.0097744E0,6.0752487E0,1.3401453E0,1.2696031E0,6.523566E-1,1.8821636E0,0E0,0E0,0E0,0E0,0E0,0E0,0E0,0E0],"parents":[2147483647,0,0,1,1,2,2,3,3,4,4,5,5,6,6],"right_children":[2,4,6,8,10,12,14,-1,-1,-1,-1,-1,-1,-1,-1],"split_conditions":[1.1257046E-1,1.0446225E0,2.2808464E-1,-1.1845789E-1,-7.345335E-1,3.7992316E-1,8.1303364E-1,-1.024416E-2,-5.0297964E-2,-3.504044E-2,2.7635803E-2,1.4547075E-1,2.6757652E-2,1.3150248E-2,-4.6941705E-2],"split_indices":[2,6,2,2,2,3,0,0,0,0,0,0,0,0,0],"split_type":[0,0,0,0,0,0,0,0,0,0,0,0,0,0,0],"sum_hessian":[7.948225E1,5.350735E1,2.5974895E1,3.5893063E1,1.7614286E1,3.5291612E0,2.2445736E1,2.3201418E1,1.2691645E1,3.1756902E0,1.4438597E1,2.373653E0,1.1555082E0,1.5889086E1,6.5566497E0],"tree_param":{"num_deleted":"0","num_feature":"7","num_nodes":"15","size_leaf_vector":"1"}},{"base_weights":[1.2345785E-2,-8.593567E-2,1.766268E-1,3.7781948E-1,-1.2756957E-1,-2.879315E-1,2.5893882E-1,8.9319356E-2,-3.514416E-2,-4.9330845E-2,-2.0147385E-3,-5.2582283E-2,2.725027E-2,3.0938158E-2,-1.1859096E-3],"categories":[],"categories_nodes":[],"categories_segments":[],"categories_sizes":[],"default_left":[0,0,0,0,0,0,0,0,0,0,0,0,0,0,0],"id":46,"left_children":[1,3,5,7,9,11,13,-1,-1,-1,-1,-1,-1,-1,-1],"loss_changes":[1.3029878E0,1.0247566E0,1.2287273E0,1.9747657E0,1.8428676E0,8.121028E-1,3.6110175E-1,0E0,0E0,0E0,0E0,0E0,0E0,0E0,0E0],"parents":[2147483647,0,0,1,1,2,2,3,3,4,4,5,5,6,6],"right_children":[2,4,6,8,10,12,14,-1,-1,-1,-1,-1,-1,-1,-1],"split_conditions":[1.3806239E0,-1.504628E0,-1.1195807E0,2.0812144E0,-3.4948623E-1,1.0446225E0,2.0487416E0,8.9319356E-2,-3.514416E-2,-4.9330845E-2,-2.0147385E-3,-5.2582283E-2,2.725027E-2,3.0938158E-2,-1.1859096E-3],"split_indices":[1,2,2,3,2,6,4,0,0,0,0,0,0,0,0],"split_type":[0,0,0,0,0,0,0,0,0,0,0,0,0,0,0],"sum_hessian":[7.876137E1,4.957808E1,2.9183289E1,3.4190357E0,4.6159042E1,4.0165205E0,2.5166769E1,1.8715824E0,1.5474533E0,9.66398E0,3.6495064E1,2.8630013E0,1.1535193E0,2.1094852E1,4.071916E0],"tree_param":{"num_deleted":"0","num_feature":"7","num_nodes":"15","size_leaf_vector":"1"}},{"base_weights":[2.850771E-2,6.626335E-2,7.3492043E-3,-8.5189596E-2,3.0487318E-2,5.996939E-2,-9.143643E-4],"categories":[],"categories_nodes":[],"categories_segments":[],"categories_sizes":[],"default_left":[0,0,0,0,0,0,0],"id":47,"left_children":[1,-1,3,-1,5,-1,-1],"loss_changes":[1.0876198E0,0E0,1.6126381E0,0E0,1.7803551E0,0E0,0E0],"parents":[2147483647,0,0,2,2,4,4],"right_children":[2,-1,4,-1,6,-1,-1],"split_conditions":[-2.1207035E0,6.626335E-2,-2.043694E0,-8.5189596E-2,-1.1965902E0,5.996939E-2,-9.143643E-4],"split_indices":[2,0,2,0,2,0,0],"split_type":[0,0,0,0,0,0,0],"sum_hessian":[8.042484E1,1.6179153E0,7.880692E1,1.1272718E0,7.767965E1,4.1364994E0,7.354315E1],"tree_param":{"num_deleted":"0","num_feature":"7","num_nodes":"7","size_leaf_vector":"1"}},{"base_weights":[2.8421368E-2,-6.1281778E-2,2.573041E-1,-4.37814E-3,-1.0225748E-1,1.1008043E0,1.004368E-1,-5.8308598E-2,3.092383E-3,1.2983322E-1,3.00289E-2,-3.20788E-2,2.9648928E-2],"categories":[],"categories_nodes":[],"categories_segments":[],"categories_sizes":[],"default_left":[0,0,0,0,0,0,0,0,0,0,0,0,0],"id":48,"left_children":[1,3,5,7,-1,9,11,-1,-1,-1,-1,-1,-1],"loss_changes":[1.7068002E0,3.2764843E0,2.983418E0,1.195427E0,0E0,1.7403984E-1,1.8141978E0,0E0,0E0,0E0,0E0,0E0,0E0],"parents":[2147483647,0,0,1,1,2,2,3,3,5,5,6,6],"right_children":[2,4,6,8,-1,10,12,-1,-1,-1,-1,-1,-1],"split_conditions":[-5.5576894E-2,-1.0756694E-1,-3.0544654E-2,-4.8994985E-1,-1.0225748E-1,2.2808464E-1,3.844938E-1,-5.8308598E-2,3.092383E-3,1.2983322E-1,3.00289E-2,-3.20788E-2,2.9648928E-2],"split_indices":[5,5,5,5,0,2,5,0,0,0,0,0,0],"split_type":[0,0,0,0,0,0,0,0,0,0,0,0,0],"sum_hessian":[8.1362816E1,5.897984E1,2.2382973E1,5.6632065E1,2.3477747E0,2.5662766E0,1.9816696E1,2.3638701E0,5.4268196E1,1.5595784E0,1.0066983E0,6.0918765E0,1.372482E1],"tree_param":{"num_deleted":"0","num_feature":"7","num_nodes":"13","size_leaf_vector":"1"}},{"base_weights":[-3.0820046E-2,-1.0985616E-2,-7.567177E-2,-9.018115E-2,1.7471522E-1,-4.5044534E-3,-9.0589084E-2,1.01528995E-1,4.5327093E-3],"categories":[],"categories_nodes":[],"categories_segments":[],"categories_sizes":[],"default_left":[0,0,0,0,0,0,0,0,0],"id":49,"left_children":[1,3,-1,5,7,-1,-1,-1,-1],"loss_changes":[1.1653173E0,1.1976055E0,0E0,2.0576758E0,2.6040277E0,0E0,0E0,0E0,0E0],"parents":[2147483647,0,0,1,1,3,3,4,4],"right_children":[2,4,-1,6,8,-1,-1,-1,-1],"split_conditions":[4.576825E0,-5.5576894E-2,-7.567177E-2,-9.368753E-2,-3.0544654E-2,-4.5044534E-3,-9.0589084E-2,1.01528995E-1,4.5327093E-3],"split_indices":[4,5,0,5,5,0,0,0,0],"split_type":[0,0,0,0,0,0,0,0,0],"sum_hessian":[8.0514755E1,7.936141E1,1.153338E0,5.5995487E1,2.3365929E1,5.4059376E1,1.9361093E0,2.2035608E0,2.1162369E1],"tree_param":{"num_deleted":"0","num_feature":"7","num_nodes":"9","size_leaf_vector":"1"}},{"base_weights":[-9.876143E-3,2.1192623E-2,-4.4603297E-1,-4.472709E-2,1.7043462E-1,-7.530526E-2,-7.944409E-2,5.444423E-3,-2.6737345E-2,-1.0968948E-3,5.5734236E-2,-3.3000007E-2,2.4147028E-2],"categories":[],"categories_nodes":[],"categories_segments":[],"categories_sizes":[],"default_left":[0,0,0,0,0,0,0,0,0,0,0,0,0],"id":50,"left_children":[1,3,5,7,9,-1,11,-1,-1,-1,-1,-1,-1],"loss_changes":[1.0719149E0,7.3707575E-1,5.32079E-1,1.1676291E0,1.615093E0,0E0,3.6230946E-1,0E0,0E0,0E0,0E0,0E0,0E0],"parents":[2147483647,0,0,1,1,2,2,3,3,4,4,6,6],"right_children":[2,4,6,8,10,-1,12,-1,-1,-1,-1,-1,-1],"split_conditions":[2.0812144E0,1.0446225E0,1.3806239E0,3.7992316E-1,3.7992316E-1,-7.530526E-2,2.93186E0,5.444423E-3,-2.6737345E-2,-1.0968948E-3,5.5734236E-2,-3.3000007E-2,2.4147028E-2],"split_indices":[3,6,1,3,3,0,3,0,0,0,0,0,0],"split_type":[0,0,0,0,0,0,0,0,0,0,0,0,0],"sum_hessian":[7.7405556E1,7.314652E1,4.259037E0,5.122216E1,2.192436E1,1.7441169E0,2.51492E0,3.5960205E1,1.5261955E1,1.5587659E1,6.3367E0,1.3963774E0,1.1185427E0],"tree_param":{"num_deleted":"0","num_feature":"7","num_nodes":"13","size_leaf_vector":"1"}},{"base_weights":[-9.774526E-2,-8.5731134E-2,-6.565213E-2,-1.725811E-1,1.2530923E-1,4.5013152E-2,-2.469187E-2,-1.480175E-2,4.1683484E-2],"categories":[],"categories_nodes":[],"categories_segments":[],"categories_sizes":[],"default_left":[0,0,0,0,0,0,0,0,0],"id":51,"left_children":[1,-1,3,5,7,-1,-1,-1,-1],"loss_changes":[1.8910837E0,0E0,1.6088264E0,2.4372392E0,2.3311138E0,0E0,0E0,0E0,0E0],"parents":[2147483647,0,0,2,2,3,3,4,4],"right_children":[2,-1,4,6,8,-1,-1,-1,-1],"split_conditions":[-4.8994985E-1,-8.5731134E-2,1.3806239E0,-8.8855237E-1,-3.482616E-1,4.5013152E-2,-2.469187E-2,-1.480175E-2,4.1683484E-2],"split_indices":[5,0,1,2,5,0,0,0,0],"split_type":[0,0,0,0,0,0,0,0,0],"sum_hessian":[7.888596E1,2.155573E0,7.673039E1,4.92494E1,2.7480991E1,4.7131305E0,4.453627E1,1.4437262E1,1.3043731E1],"tree_param":{"num_deleted":"0","num_feature":"7","num_nodes":"9","size_leaf_vector":"1"}},{"base_weights":[-3.198142E-2,5.7362802E-2,-2.1600941E-1,-2.414803E-1,1.5793729E-1,1.7475007E-1,-4.6477827E-1,2.534313E-2,-3.7670884E-2,6.673895E-2,-2.1710438E-3,6.0009886E-2,-9.137192E-3,-1.2594496E-1,-2.4007328E-2],"categories":[],"categories_nodes":[],"categories_segments":[],"categories_sizes":[],"default_left":[0,0,0,0,0,0,0,0,0,0,0,0,0,0,0],"id":52,"left_children":[1,3,5,7,9,11,13,-1,-1,-1,-1,-1,-1,-1,-1],"loss_changes":[1.2650523E0,1.6033894E0,2.522095E0,9.995596E-1,3.6359258E0,1.2427071E0,2.4860508E0,0E0,0E0,0E0,0E0,0E0,0E0,0E0,0E0],"parents":[2147483647,0,0,1,1,2,2,3,3,4,4,5,5,6,6],"right_children":[2,4,6,8,10,12,14,-1,-1,-1,-1,-1,-1,-1,-1],"split_conditions":[3.7992316E-1,-4.264957E-1,-3.8799095E-1,-4.784774E-1,1.2390225E-2,-2.5198373E-1,-7.9953164E-2,2.534313E-2,-3.7670884E-2,6.673895E-2,-2.1710438E-3,6.0009886E-2,-9.137192E-3,-1.2594496E-1,-2.4007328E-2],"split_indices":[3,2,2,5,2,5,2,0,0,0,0,0,0,0,0],"split_type":[0,0,0,0,0,0,0,0,0,0,0,0,0,0,0],"sum_hessian":[7.518743E1,5.1077824E1,2.4109612E1,1.2508763E1,3.856906E1,9.49409E0,1.4615521E1,2.4968078E0,1.0011955E1,9.347124E0,2.9221935E1,3.1709359E0,6.323154E0,2.2066789E0,1.2408842E1],"tree_param":{"num_deleted":"0","num_feature":"7","num_nodes":"15","size_leaf_vector":"1"}},{"base_weights":[6.945853E-2,3.0853763E-1,-1.284257E-2,4.9938273E-1,-4.0790913E-4,6.1633164E-1,-6.528717E-2,1.9597849E-2,1.0192584E-1,-4.150554E-2,1.8731823E-2,8.525389E-2,4.646155E-3,-2.3810861E-3,-5.3696454E-2],"categories":[],"categories_nodes":[],"categories_segments":[],"categories_sizes":[],"default_left":[0,0,0,0,0,0,0,0,0,0,0,0,0,0,0],"id":53,"left_children":[1,3,5,7,9,11,13,-1,-1,-1,-1,-1,-1,-1,-1],"loss_changes":[1.569303E0,1.2037482E0,2.0247083E0,1.7906559E0,7.6225466E-1,5.961578E-1,1.0909476E0,0E0,0E0,0E0,0E0,0E0,0E0,0E0,0E0],"parents":[2147483647,0,0,1,1,2,2,3,3,4,4,5,5,6,6],"right_children":[2,4,6,8,10,12,14,-1,-1,-1,-1,-1,-1,-1,-1],"split_conditions":[-4.0055117E-1,1.1136934E0,-1.8126658E0,1.895799E-1,1.4217311E0,2.0812144E0,1.1907028E0,1.9597849E-2,1.0192584E-1,-4.150554E-2,1.8731823E-2,8.525389E-2,4.646155E-3,-2.3810861E-3,-5.3696454E-2],"split_indices":[0,2,2,2,2,3,2,0,0,0,0,0,0,0,0],"split_type":[0,0,0,0,0,0,0,0,0,0,0,0,0,0,0],"sum_hessian":[7.855393E1,1.9412642E1,5.9141293E1,1.1618888E1,7.793753E0,3.7231288E0,5.5418163E1,8.206482E0,3.4124067E0,2.0514874E0,5.7422657E0,2.2814574E0,1.4416714E0,5.190449E1,3.5136707E0],"tree_param":{"num_deleted":"0","num_feature":"7","num_nodes":"15","size_leaf_vector":"1"}},{"base_weights":[2.6241204E-2,-8.3393276E-2,2.5546458E-1,-3.6784228E-2,-8.955469E-2,-6.937143E-2,3.5277662E-1,5.926053E-2,-9.685492E-3,9.7290695E-2,1.8241681E-2],"categories":[],"categories_nodes":[],"categories_segments":[],"categories_sizes":[],"default_left":[0,0,0,0,0,0,0,0,0,0,0],"id":54,"left_children":[1,3,5,7,-1,-1,9,-1,-1,-1,-1],"loss_changes":[1.9378104E0,1.9483787E0,2.5464792E0,1.9683402E0,0E0,0E0,2.2804058E0,0E0,0E0,0E0,0E0],"parents":[2147483647,0,0,1,1,2,2,3,3,6,6],"right_children":[2,4,6,8,-1,-1,10,-1,-1,-1,-1],"split_conditions":[1.1257046E-1,1.962407E0,-4.773548E-1,-1.8126658E0,-8.955469E-2,-6.937143E-2,2.2808464E-1,5.926053E-2,-9.685492E-3,9.7290695E-2,1.8241681E-2],"split_indices":[2,5,5,2,0,0,2,0,0,0,0],"split_type":[0,0,0,0,0,0,0,0,0,0,0],"sum_hessian":[7.52613E1,5.134153E1,2.3919773E1,4.9543545E1,1.7979844E0,1.654366E0,2.2265406E1,3.5441935E0,4.599935E1,3.7832007E0,1.8482206E1],"tree_param":{"num_deleted":"0","num_feature":"7","num_nodes":"11","size_leaf_vector":"1"}},{"base_weights":[4.628604E-2,3.279094E-1,-5.3360257E-2,1.6478634E-1,1.12425305E-1,-1.0050019E-1,2.1077973E-1,3.427696E-2,-6.114505E-2,-2.4395813E-3,-5.258453E-2,3.969703E-2,-8.415439E-3],"categories":[],"categories_nodes":[],"categories_segments":[],"categories_sizes":[],"default_left":[0,0,0,0,0,0,0,0,0,0,0,0,0],"id":55,"left_children":[1,3,5,7,-1,9,11,-1,-1,-1,-1,-1,-1],"loss_changes":[2.2140474E0,2.4903138E0,7.5179005E-1,2.7332842E0,0E0,1.6208298E0,5.390928E-1,0E0,0E0,0E0,0E0,0E0,0E0],"parents":[2147483647,0,0,1,1,2,2,3,3,5,5,6,6],"right_children":[2,4,6,8,-1,10,12,-1,-1,-1,-1,-1,-1],"split_conditions":[-4.7246003E-1,-4.7486696E-1,8.2151437E-1,-4.7558904E-1,1.12425305E-1,1.3505326E-1,1.9842293E0,3.427696E-2,-6.114505E-2,-2.4395813E-3,-5.258453E-2,3.969703E-2,-8.415439E-3],"split_indices":[5,5,5,5,0,5,5,0,0,0,0,0,0],"split_type":[0,0,0,0,0,0,0,0,0,0,0,0,0],"sum_hessian":[7.727288E1,1.9596874E1,5.7676006E1,1.7266857E1,2.3300154E0,4.9467308E1,8.208699E0,1.4500468E1,2.7663894E0,4.2856598E1,6.610711E0,4.8199344E0,3.3887646E0],"tree_param":{"num_deleted":"0","num_feature":"7","num_nodes":"13","size_leaf_vector":"1"}},{"base_weights":[7.753702E-2,1.0780959E-1,-5.0512004E-1,8.058175E-2,5.5704707E-1,-8.495675E-2,2.6675805E-2,1.2674379E-2,-5.4038174E-2,9.591531E-2,9.461147E-3],"categories":[],"categories_nodes":[],"categories_segments":[],"categories_sizes":[],"default_left":[0,0,0,0,0,0,0,0,0,0,0],"id":56,"left_children":[1,3,5,7,9,-1,-1,-1,-1,-1,-1],"loss_changes":[1.4293895E0,8.7157357E-1,1.2969921E0,2.1269827E0,6.739619E-1,0E0,0E0,0E0,0E0,0E0,0E0],"parents":[2147483647,0,0,1,1,2,2,3,3,4,4],"right_children":[2,4,6,8,10,-1,-1,-1,-1,-1,-1],"split_conditions":[2.2907145E0,1.0381396E0,4.424713E0,5.1631355E-1,1.0446225E0,-8.495675E-2,2.6675805E-2,1.2674379E-2,-5.4038174E-2,9.591531E-2,9.461147E-3],"split_indices":[5,5,5,5,6,0,0,0,0,0,0],"split_type":[0,0,0,0,0,0,0,0,0,0,0],"sum_hessian":[7.6950554E1,7.392469E1,3.025867E0,7.081221E1,3.112484E0,2.0226278E0,1.0032393E0,6.6653145E1,4.159062E0,1.0902956E0,2.0221884E0],"tree_param":{"num_deleted":"0","num_feature":"7","num_nodes":"11","size_leaf_vector":"1"}},{"base_weights":[4.925442E-2,-7.523629E-2,7.2562754E-2,7.194406E-2,4.706008E-2,-4.7101113E-3,2.5170365E-2],"categories":[],"categories_nodes":[],"categories_segments":[],"categories_sizes":[],"default_left":[0,0,0,0,0,0,0],"id":57,"left_children":[1,-1,3,-1,5,-1,-1],"loss_changes":[1.4866549E0,0E0,1.2098826E0,0E0,1.4301243E0,0E0,0E0],"parents":[2147483647,0,0,2,2,4,4],"right_children":[2,-1,4,-1,6,-1,-1],"split_conditions":[-4.9315977E-1,-7.523629E-2,-4.8826498E-1,7.194406E-2,-5.5576894E-2,-4.7101113E-3,2.5170365E-2],"split_indices":[5,0,5,0,5,0,0],"split_type":[0,0,0,0,0,0,0],"sum_hessian":[7.5644905E1,1.2535698E0,7.4391335E1,1.7895224E0,7.2601814E1,5.0250328E1,2.2351486E1],"tree_param":{"num_deleted":"0","num_feature":"7","num_nodes":"7","size_leaf_vector":"1"}},{"base_weights":[-2.365215E-3,5.373481E-1,-4.0189512E-2,1.849689E-1,9.336046E-2,1.11508176E-1,-9.222707E-2,6.702444E-2,-2.9561872E-2,2.7517805E-2,-1.591988E-2,-7.6813734E-4,-4.868591E-2],"categories":[],"categories_nodes":[],"categories_segments":[],"categories_sizes":[],"default_left":[0,0,0,0,0,0,0,0,0,0,0,0,0],"id":58,"left_children":[1,3,5,7,-1,9,11,-1,-1,-1,-1,-1,-1],"loss_changes":[1.6006978E0,5.4441035E-1,5.882593E-1,1.1229316E0,0E0,8.9244044E-1,1.8334255E0,0E0,0E0,0E0,0E0,0E0,0E0],"parents":[2147483647,0,0,1,1,2,2,3,3,5,5,6,6],"right_children":[2,4,6,8,-1,10,12,-1,-1,-1,-1,-1,-1],"split_conditions":[-1.8126658E0,-2.3083119E-2,-4.0055117E-1,-2.2310036E-1,9.336046E-2,1.1136934E0,-1.7592421E-1,6.702444E-2,-2.9561872E-2,2.7517805E-2,-1.591988E-2,-7.6813734E-4,-4.868591E-2],"split_indices":[2,5,0,5,0,2,5,0,0,0,0,0,0],"split_type":[0,0,0,0,0,0,0,0,0,0,0,0,0],"sum_hessian":[7.635283E1,4.135607E0,7.2217224E1,2.9653761E0,1.1702305E0,1.8153646E1,5.4063576E1,1.2791318E0,1.6862444E0,1.1303198E1,6.8504486E0,4.536424E1,8.69934E0],"tree_param":{"num_deleted":"0","num_feature":"7","num_nodes":"13","size_leaf_vector":"1"}},{"base_weights":[6.045213E-2,8.092442E-2,-7.3585324E-2,-8.9086495E-2,1.7262825E-1,-3.0740155E-2,2.8459726E-2,1.1307235E-1,7.5032087E-3],"categories":[],"categories_nodes":[],"categories_segments":[],"categories_sizes":[],"default_left":[0,0,0,0,0,0,0,0,0],"id":59,"left_children":[1,3,-1,5,7,-1,-1,-1,-1],"loss_changes":[1.3568203E0,1.2389779E0,0E0,2.3847756E0,4.7142057E0,0E0,0E0,0E0,0E0],"parents":[2147483647,0,0,1,1,3,3,4,4],"right_children":[2,4,-1,6,8,-1,-1,-1,-1],"split_conditions":[4.576825E0,-2.724768E-1,-7.3585324E-2,7.8470004E-1,-1.1845789E-1,-3.0740155E-2,2.8459726E-2,1.1307235E-1,7.5032087E-3],"split_indices":[4,2,0,4,2,0,0,0,0],"split_type":[0,0,0,0,0,0,0,0,0],"sum_hessian":[7.857651E1,7.7482864E1,1.0936394E0,2.7159697E1,5.032317E1,1.7255812E1,9.903885E0,3.673632E0,4.664954E1],"tree_param":{"num_deleted":"0","num_feature":"7","num_nodes":"9","size_leaf_vector":"1"}},{"base_weights":[5.6704044E-2,1.06879905E-1,-6.5707445E-2,2.4671385E-1,2.707454E-2,9.301673E-3,1.3093083E-1,-5.8337044E-2,8.077716E-3],"categories":[],"categories_nodes":[],"categories_segments":[],"categories_sizes":[],"default_left":[0,0,0,0,0,0,0,0,0],"id":60,"left_children":[1,3,-1,5,7,-1,-1,-1,-1],"loss_changes":[2.8171172E0,8.026119E-1,0E0,4.161521E0,1.5975252E0,0E0,0E0,0E0,0E0],"parents":[2147483647,0,0,1,1,3,3,4,4],"right_children":[2,4,-1,6,8,-1,-1,-1,-1],"split_conditions":[2.0812144E0,-1.1845789E-1,-6.5707445E-2,-1.9546734E-1,-4.144844E-2,9.301673E-3,1.3093083E-1,-5.8337044E-2,8.077716E-3],"split_indices":[3,2,0,2,2,0,0,0,0],"split_type":[0,0,0,0,0,0,0,0,0],"sum_hessian":[7.5697784E1,7.152044E1,4.177348E0,2.5226845E1,4.6293594E1,2.2989155E1,2.2376888E0,2.9457603E0,4.3347836E1],"tree_param":{"num_deleted":"0","num_feature":"7","num_nodes":"9","size_leaf_vector":"1"}},{"base_weights":[-3.975601E-2,2.2911653E-2,-4.7396982E-1,-5.1047113E-2,2.6696014E-1,-6.468705E-1,2.2664504E-2,-1.314072E-2,1.1990208E-2,3.9343003E-2,-2.8246233E-2,-7.3955156E-2,-3.1399827E-2],"categories":[],"categories_nodes":[],"categories_segments":[],"categories_sizes":[],"default_left":[0,0,0,0,0,0,0,0,0,0,0,0,0],"id":61,"left_children":[1,3,5,7,9,11,-1,-1,-1,-1,-1,-1,-1],"loss_changes":[2.2018204E0,1.3008459E0,1.382335E0,7.791414E-1,1.2747612E0,2.8205872E-2,0E0,0E0,0E0,0E0,0E0,0E0,0E0],"parents":[2147483647,0,0,1,1,2,2,3,3,4,4,5,5],"right_children":[2,4,6,8,10,12,-1,-1,-1,-1,-1,-1,-1],"split_conditions":[1.2292075E0,1.1257046E-1,1.3806239E0,1.0446225E0,1.0446225E0,3.7992316E-1,2.2664504E-2,-1.314072E-2,1.1990208E-2,3.9343003E-2,-2.8246233E-2,-7.3955156E-2,-3.1399827E-2],"split_indices":[2,2,1,6,6,3,0,0,0,0,0,0,0],"split_type":[0,0,0,0,0,0,0,0,0,0,0,0,0],"sum_hessian":[7.951698E1,7.031591E1,9.201071E0,5.456949E1,1.5746423E1,7.441368E0,1.7597022E0,3.727738E1,1.7292107E1,1.3030819E1,2.715604E0,4.8650684E0,2.5763001E0],"tree_param":{"num_deleted":"0","num_feature":"7","num_nodes":"13","size_leaf_vector":"1"}},{"base_weights":[-1.7304521E-2,6.9762364E-2,-1.996922E-1,-3.0401723E-2,2.8601426E-1,-5.997417E-1,-1.10762924E-1,-1.502036E-2,2.2413028E-2,9.347842E-2,1.62746E-2,-1.8425634E-3,-1.0430008E-1,6.2046446E-2,-2.63004E-2],"categories":[],"categories_nodes":[],"categories_segments":[],"categories_sizes":[],"default_left":[0,0,0,0,0,0,0,0,0,0,0,0,0,0,0],"id":62,"left_children":[1,3,5,7,9,11,13,-1,-1,-1,-1,-1,-1,-1,-1],"loss_changes":[1.2582786E0,1.1736293E0,8.435625E-1,1.1820514E0,1.2170742E0,1.1210954E0,2.6293535E0,0E0,0E0,0E0,0E0,0E0,0E0,0E0,0E0],"parents":[2147483647,0,0,1,1,2,2,3,3,4,4,5,5,6,6],"right_children":[2,4,6,8,10,12,14,-1,-1,-1,-1,-1,-1,-1,-1],"split_conditions":[3.7992316E-1,1.3806239E0,-3.4906453E-1,-1.22008614E-1,-4.8056278E-1,1.3806239E0,-2.847182E-1,-1.502036E-2,2.2413028E-2,9.347842E-2,1.62746E-2,-1.8425634E-3,-1.0430008E-1,6.2046446E-2,-2.63004E-2],"split_indices":[3,1,5,5,5,1,5,0,0,0,0,0,0,0,0],"split_type":[0,0,0,0,0,0,0,0,0,0,0,0,0,0,0],"sum_hessian":[7.735978E1,5.2781055E1,2.4578726E1,3.6660137E1,1.6120916E1,3.4254165E0,2.1153309E1,2.5206125E1,1.1454013E1,1.5228285E0,1.4598089E1,1.9325392E0,1.4928771E0,3.115198E0,1.803811E1],"tree_param":{"num_deleted":"0","num_feature":"7","num_nodes":"15","size_leaf_vector":"1"}},{"base_weights":[-1.1654029E-2,1.4701271E-2,-5.715493E-1,-6.313728E-2,1.7520194E-1,-6.66879E-2,-1.7492604E-2,5.43649E-3,-3.0023709E-2,3.375141E-2,-1.9752545E-2],"categories":[],"categories_nodes":[],"categories_segments":[],"categories_sizes":[],"default_left":[0,0,0,0,0,0,0,0,0,0,0],"id":63,"left_children":[1,3,5,7,9,-1,-1,-1,-1,-1,-1],"loss_changes":[1.1245036E0,9.256932E-1,1.2857795E-2,1.4103155E0,1.5291858E0,0E0,0E0,0E0,0E0,0E0,0E0],"parents":[2147483647,0,0,1,1,2,2,3,3,4,4],"right_children":[2,4,6,8,10,-1,-1,-1,-1,-1,-1],"split_conditions":[2.93186E0,-1.21286534E-1,1.3806239E0,-3.6053702E-1,7.8470004E-1,-6.66879E-2,-1.7492604E-2,5.43649E-3,-3.0023709E-2,3.375141E-2,-1.9752545E-2],"split_indices":[3,5,1,5,4,0,0,0,0,0,0],"split_type":[0,0,0,0,0,0,0,0,0,0,0],"sum_hessian":[7.463604E1,7.221069E1,2.4253476E0,4.903611E1,2.3174583E1,1.4060158E0,1.0193318E0,3.3302654E1,1.5733456E1,1.6210047E1,6.9645376E0],"tree_param":{"num_deleted":"0","num_feature":"7","num_nodes":"11","size_leaf_vector":"1"}},{"base_weights":[9.184593E-2,1.5019852E-1,-1.1442212E-1,7.634072E-2,4.990508E-1,5.4996993E-2,-5.545333E-2,2.3664345E-3,4.420802E-2,1.0485555E-1,4.4098366E-3,-2.8572569E-2,3.9496724E-2],"categories":[],"categories_nodes":[],"categories_segments":[],"categories_sizes":[],"default_left":[0,0,0,0,0,0,0,0,0,0,0,0,0],"id":64,"left_children":[1,3,5,7,9,11,-1,-1,-1,-1,-1,-1,-1],"loss_changes":[9.356541E-1,1.5056056E0,1.3275003E0,9.6488833E-1,2.5256913E0,1.6731093E0,0E0,0E0,0E0,0E0,0E0,0E0,0E0],"parents":[2147483647,0,0,1,1,2,2,3,3,4,4,5,5],"right_children":[2,4,6,8,10,12,-1,-1,-1,-1,-1,-1,-1],"split_conditions":[5.3612244E-1,1.1257046E-1,7.8470004E-1,2.6372802E0,2.2808464E-1,1.4217311E0,-5.545333E-2,2.3664345E-3,4.420802E-2,1.0485555E-1,4.4098366E-3,-2.8572569E-2,3.9496724E-2],"split_indices":[2,2,4,6,2,2,0,0,0,0,0,0,0],"split_type":[0,0,0,0,0,0,0,0,0,0,0,0,0],"sum_hessian":[7.530834E1,5.8913673E1,1.6394665E1,4.962589E1,9.2877865E0,1.2469584E1,3.9250805E0,4.430891E1,5.3169785E0,3.6157823E0,5.6720047E0,6.3075905E0,6.161994E0],"tree_param":{"num_deleted":"0","num_feature":"7","num_nodes":"13","size_leaf_vector":"1"}},{"base_weights":[2.2563256E-2,1.1360581E-1,-3.0447447E-1,-5.2222274E-2,2.3716486E-1,-3.9075387E-1,2.9976735E-2,1.1452037E-2,-2.6007513E-2,1.1646003E-2,7.677976E-2,-1.6089318E-2,-7.193044E-2],"categories":[],"categories_nodes":[],"categories_segments":[],"categories_sizes":[],"default_left":[0,0,0,0,0,0,0,0,0,0,0,0,0],"id":65,"left_children":[1,3,5,7,9,11,-1,-1,-1,-1,-1,-1,-1],"loss_changes":[2.292792E0,1.242909E0,9.923413E-1,9.4688773E-1,2.12636E0,1.0264661E0,0E0,0E0,0E0,0E0,0E0,0E0,0E0],"parents":[2147483647,0,0,1,1,2,2,3,3,4,4,5,5],"right_children":[2,4,6,8,10,12,-1,-1,-1,-1,-1,-1,-1],"split_conditions":[5.3612244E-1,-4.249623E-1,2.422854E0,1.2390225E-2,1.895799E-1,1.4987406E0,2.9976735E-2,1.1452037E-2,-2.6007513E-2,1.1646003E-2,7.677976E-2,-1.6089318E-2,-7.193044E-2],"split_indices":[2,5,2,2,2,2,0,0,0,0,0,0,0],"split_type":[0,0,0,0,0,0,0,0,0,0,0,0,0],"sum_hessian":[7.484387E1,5.9056126E1,1.5787747E1,2.5461586E1,3.359454E1,1.4124266E1,1.6634817E0,1.4377097E1,1.1084489E1,2.8362337E1,5.232203E0,9.18674E0,4.9375257E0],"tree_param":{"num_deleted":"0","num_feature":"7","num_nodes":"13","size_leaf_vector":"1"}},{"base_weights":[-2.9895052E-3,1.5194142E-1,-1.0542219E-1,1.2349161E-1,3.7746437E-2,-2.737384E-1,2.632797E-1,-7.209101E-3,5.4634046E-2,-4.279463E-2,-1.0412133E-2,-9.245154E-3,5.409124E-2],"categories":[],"categories_nodes":[],"categories_segments":[],"categories_sizes":[],"default_left":[0,0,0,0,0,0,0,0,0,0,0,0,0],"id":66,"left_children":[1,3,5,-1,7,9,11,-1,-1,-1,-1,-1,-1],"loss_changes":[1.2374041E0,3.7922463E0,2.9839115E0,0E0,1.6656427E0,8.1087947E-1,1.552784E0,0E0,0E0,0E0,0E0,0E0,0E0],"parents":[2147483647,0,0,1,1,2,2,4,4,5,5,6,6],"right_children":[2,4,6,-1,8,10,12,-1,-1,-1,-1,-1,-1],"split_conditions":[-1.1845789E-1,-4.8786446E-1,1.3806239E0,1.2349161E-1,-2.724768E-1,-1.8458922E-1,-3.2900602E-1,-7.209101E-3,5.4634046E-2,-4.279463E-2,-1.0412133E-2,-9.245154E-3,5.409124E-2],"split_indices":[2,5,1,0,2,5,5,0,0,0,0,0,0],"split_type":[0,0,0,0,0,0,0,0,0,0,0,0,0],"sum_hessian":[7.5962E1,3.0041086E1,4.592091E1,1.9294007E0,2.8111685E1,3.170487E1,1.4216039E1,2.382469E1,4.286995E0,1.5809029E1,1.5895841E1,6.523924E0,7.692115E0],"tree_param":{"num_deleted":"0","num_feature":"7","num_nodes":"13","size_leaf_vector":"1"}},{"base_weights":[-3.194356E-2,-9.634632E-2,2.7876404E-1,-4.65173E-2,-6.874443E-1,1.08381115E-1,-2.0491527E-2,-1.08212335E-2,7.749251E-2,-1.2441597E-2,-8.3984E-2,-3.948969E-2,3.1865638E-2],"categories":[],"categories_nodes":[],"categories_segments":[],"categories_sizes":[],"default_left":[0,0,0,0,0,0,0,0,0,0,0,0,0],"id":67,"left_children":[1,3,5,7,9,-1,11,-1,-1,-1,-1,-1,-1],"loss_changes":[1.5585246E0,1.8573331E0,3.2501311E0,3.1362705E0,3.171792E-1,0E0,1.4907509E0,0E0,0E0,0E0,0E0,0E0,0E0],"parents":[2147483647,0,0,1,1,2,2,3,3,4,4,6,6],"right_children":[2,4,6,8,10,-1,12,-1,-1,-1,-1,-1,-1],"split_conditions":[3.844938E-1,8.0174886E-2,5.504922E-1,-4.017244E-2,-3.8799095E-1,1.08381115E-1,2.2808464E-1,-1.08212335E-2,7.749251E-2,-1.2441597E-2,-8.3984E-2,-3.948969E-2,3.1865638E-2],"split_indices":[5,5,5,5,2,0,2,0,0,0,0,0,0],"split_type":[0,0,0,0,0,0,0,0,0,0,0,0,0],"sum_hessian":[7.5543434E1,6.314483E1,1.2398603E1,5.9230453E1,3.9143763E0,2.6494505E0,9.749152E0,5.5900288E1,3.3301663E0,1.2207384E0,2.6936378E0,4.5555897E0,5.193563E0],"tree_param":{"num_deleted":"0","num_feature":"7","num_nodes":"13","size_leaf_vector":"1"}},{"base_weights":[-1.3129671E-2,-8.12196E-2,1.4435624E-2,3.4103375E-2,-7.074947E-2,-8.732117E-3,1.5242594E-2],"categories":[],"categories_nodes":[],"categories_segments":[],"categories_sizes":[],"default_left":[0,0,0,0,0,0,0],"id":68,"left_children":[1,-1,3,5,-1,-1,-1],"loss_changes":[1.7020531E0,0E0,1.0913651E0,1.0782803E0,0E0,0E0,0E0],"parents":[2147483647,0,0,2,2,3,3],"right_children":[2,-1,4,6,-1,-1,-1],"split_conditions":[-4.9315977E-1,-8.12196E-2,4.576825E0,-3.2900602E-1,-7.074947E-2,-8.732117E-3,1.5242594E-2],"split_indices":[5,0,4,5,0,0,0],"split_type":[0,0,0,0,0,0,0],"sum_hessian":[7.5740685E1,1.5764985E0,7.4164185E1,7.312479E1,1.0393983E0,3.621864E1,3.6906147E1],"tree_param":{"num_deleted":"0","num_feature":"7","num_nodes":"7","size_leaf_vector":"1"}},{"base_weights":[3.569142E-2,6.721239E-2,-4.44229E-1,6.2978074E-2,4.9524806E-2,-6.5971786E-1,1.7213112E-2,-1.0402887E-2,1.1979151E-2,-2.0575063E-2,-7.6443456E-2],"categories":[],"categories_nodes":[],"categories_segments":[],"categories_sizes":[],"default_left":[0,0,0,0,0,0,0,0,0,0,0],"id":69,"left_children":[1,3,5,-1,7,9,-1,-1,-1,-1,-1],"loss_changes":[1.1996307E0,6.994741E-1,7.640011E-1,0E0,7.9231054E-1,2.5050402E-2,0E0,0E0,0E0,0E0,0E0],"parents":[2147483647,0,0,1,1,2,2,4,4,5,5],"right_children":[2,4,6,-1,8,10,-1,-1,-1,-1,-1],"split_conditions":[2.0812144E0,-2.1207035E0,-7.345335E-1,6.2978074E-2,-2.724768E-1,-1.9666847E0,1.7213112E-2,-1.0402887E-2,1.1979151E-2,-2.0575063E-2,-7.6443456E-2],"split_indices":[3,2,2,0,2,2,0,0,0,0,0],"split_type":[0,0,0,0,0,0,0,0,0,0,0],"sum_hessian":[7.632729E1,7.243007E1,3.8972247E0,1.1529734E0,7.12771E1,2.8355343E0,1.0616906E0,2.2226055E1,4.9051044E1,1.087189E0,1.7483453E0],"tree_param":{"num_deleted":"0","num_feature":"7","num_nodes":"11","size_leaf_vector":"1"}},{"base_weights":[4.4701494E-2,5.1131356E-1,1.2662643E-2,1.6195498E-2,7.431887E-2,-2.4597095E-1,7.37859E-2,-4.3955747E-2,1.731936E-2,-2.855749E-3,2.8890971E-2],"categories":[],"categories_nodes":[],"categories_segments":[],"categories_sizes":[],"default_left":[0,0,0,0,0,0,0,0,0,0,0],"id":70,"left_children":[1,3,5,-1,-1,7,9,-1,-1,-1,-1],"loss_changes":[1.097219E0,2.6183653E-1,1.1264691E0,0E0,0E0,1.18233E0,1.2736822E0,0E0,0E0,0E0,0E0],"parents":[2147483647,0,0,1,1,2,2,5,5,6,6],"right_children":[2,4,6,-1,-1,8,10,-1,-1,-1,-1],"split_conditions":[-1.8126658E0,-2.043694E0,-5.805146E-1,1.6195498E-2,7.431887E-2,7.8470004E-1,1.3806239E0,-4.3955747E-2,1.731936E-2,-2.855749E-3,2.8890971E-2],"split_indices":[2,2,2,0,0,4,1,0,0,0,0],"split_type":[0,0,0,0,0,0,0,0,0,0,0],"sum_hessian":[7.2827065E1,3.7180738E0,6.9108986E1,2.16085E0,1.5572237E0,1.2632471E1,5.6476517E1,8.6082115E0,4.024259E0,3.885759E1,1.7618929E1],"tree_param":{"num_deleted":"0","num_feature":"7","num_nodes":"11","size_leaf_vector":"1"}},{"base_weights":[8.2883246E-2,5.723027E-1,4.8787892E-2,8.2195364E-2,1.1928418E-3,-2.7508033E-2,2.2908898E-1,-1.7114012E-2,2.159487E-2,5.8282856E-3,4.930493E-2],"categories":[],"categories_nodes":[],"categories_segments":[],"categories_sizes":[],"default_left":[0,0,0,0,0,0,0,0,0,0,0],"id":71,"left_children":[1,3,5,-1,-1,7,9,-1,-1,-1,-1],"loss_changes":[1.2171707E0,6.569917E-1,9.809109E-1,0E0,0E0,1.8089842E0,9.258759E-1,0E0,0E0,0E0,0E0],"parents":[2147483647,0,0,1,1,2,2,5,5,6,6],"right_children":[2,4,6,-1,-1,8,10,-1,-1,-1,-1],"split_conditions":[-1.8126658E0,2.0812144E0,1.0446225E0,8.2195364E-2,1.1928418E-3,1.895799E-1,1.3806239E0,-1.7114012E-2,2.159487E-2,5.8282856E-3,4.930493E-2],"split_indices":[2,3,6,0,0,2,1,0,0,0,0],"split_type":[0,0,0,0,0,0,0,0,0,0,0],"sum_hessian":[7.3614815E1,3.766304E0,6.984851E1,2.282596E0,1.4837078E0,4.9675385E1,2.0173126E1,3.14298E1,1.8245584E1,1.2988924E1,7.184202E0],"tree_param":{"num_deleted":"0","num_feature":"7","num_nodes":"11","size_leaf_vector":"1"}},{"base_weights":[-4.2073183E-2,2.0005679E-2,-2.8991875E-1,-1.9333547E-1,1.3960057E-1,-5.62609E-1,2.3626946E-2,4.151291E-2,-3.0994479E-2,-7.146048E-3,2.8563637E-2,1.0151274E-2,-7.11493E-2,2.1764927E-2,-5.251194E-2],"categories":[],"categories_nodes":[],"categories_segments":[],"categories_sizes":[],"default_left":[0,0,0,0,0,0,0,0,0,0,0,0,0,0,0],"id":72,"left_children":[1,3,5,7,9,11,13,-1,-1,-1,-1,-1,-1,-1,-1],"loss_changes":[1.2013891E0,1.6363697E0,1.3496201E0,1.7660681E0,1.2841227E0,9.0275526E-1,9.90509E-1,0E0,0E0,0E0,0E0,0E0,0E0,0E0,0E0],"parents":[2147483647,0,0,1,1,2,2,3,3,4,4,5,5,6,6],"right_children":[2,4,6,8,10,12,14,-1,-1,-1,-1,-1,-1,-1,-1],"split_conditions":[5.3612244E-1,-4.264957E-1,1.4217311E0,-4.784774E-1,-4.249623E-1,-4.7286054E-1,7.8470004E-1,4.151291E-2,-3.0994479E-2,-7.146048E-3,2.8563637E-2,1.0151274E-2,-7.11493E-2,2.1764927E-2,-5.251194E-2],"split_indices":[2,2,2,5,5,5,4,0,0,0,0,0,0,0,0],"split_type":[0,0,0,0,0,0,0,0,0,0,0,0,0,0,0],"sum_hessian":[7.670644E1,6.2077045E1,1.4629401E1,2.2077383E1,3.999966E1,7.399618E0,7.229783E0,3.1388643E0,1.893852E1,1.6566814E1,2.3432844E1,1.4133425E0,5.9862757E0,5.787016E0,1.4427669E0],"tree_param":{"num_deleted":"0","num_feature":"7","num_nodes":"15","size_leaf_vector":"1"}},{"base_weights":[9.415422E-2,-5.240331E-1,1.1890595E-1,-4.871866E-3,-7.3793985E-2,1.4875884E-1,-3.4365213E-1,1.8408323E-2,-4.9359072E-2,-7.985363E-2,1.9933889E-2],"categories":[],"categories_nodes":[],"categories_segments":[],"categories_sizes":[],"default_left":[0,0,0,0,0,0,0,0,0,0,0],"id":73,"left_children":[1,3,5,-1,-1,7,9,-1,-1,-1,-1],"loss_changes":[1.1968613E0,2.7308017E-1,1.0468429E0,0E0,0E0,1.6436837E0,1.3135839E0,0E0,0E0,0E0,0E0],"parents":[2147483647,0,0,1,1,2,2,5,5,6,6],"right_children":[2,4,6,-1,-1,8,10,-1,-1,-1,-1],"split_conditions":[-4.8994985E-1,-4.9749225E-1,2.0812144E0,-4.871866E-3,-7.3793985E-2,2.2907145E0,-2.3083119E-2,1.8408323E-2,-4.9359072E-2,-7.985363E-2,1.9933889E-2],"split_indices":[5,5,3,0,0,5,5,0,0,0,0],"split_type":[0,0,0,0,0,0,0,0,0,0,0],"sum_hessian":[7.314779E1,2.039467E0,7.110832E1,1.0140157E0,1.0254514E0,6.7434586E1,3.6737392E0,6.4595726E1,2.8388562E0,1.7429655E0,1.9307736E0],"tree_param":{"num_deleted":"0","num_feature":"7","num_nodes":"11","size_leaf_vector":"1"}},{"base_weights":[-2.020722E-2,2.2653903E-1,-1.2681986E-1,6.0171014E-1,-1.5918618E-1,-2.6835328E-1,1.11108355E-1,7.888048E-2,2.6362926E-2,-3.784571E-2,4.1505944E-2,1.6781677E-2,-3.824001E-2,3.516325E-2,-1.8857716E-2],"categories":[],"categories_nodes":[],"categories_segments":[],"categories_sizes":[],"default_left":[0,0,0,0,0,0,0,0,0,0,0,0,0,0,0],"id":74,"left_children":[1,3,5,7,9,11,13,-1,-1,-1,-1,-1,-1,-1,-1],"loss_changes":[1.949836E0,3.3362641E0,1.7686477E0,5.2330065E-1,1.646878E0,1.6892717E0,1.5055369E0,0E0,0E0,0E0,0E0,0E0,0E0,0E0,0E0],"parents":[2147483647,0,0,1,1,2,2,3,3,4,4,5,5,6,6],"right_children":[2,4,6,8,10,12,14,-1,-1,-1,-1,-1,-1,-1,-1],"split_conditions":[-4.7077516E-1,1.2390225E-2,1.1257046E-1,-4.772739E-1,-4.7486696E-1,-1.0425713E0,1.0366838E0,7.888048E-2,2.6362926E-2,-3.784571E-2,4.1505944E-2,1.6781677E-2,-3.824001E-2,3.516325E-2,-1.8857716E-2],"split_indices":[5,2,2,5,5,2,2,0,0,0,0,0,0,0,0],"split_type":[0,0,0,0,0,0,0,0,0,0,0,0,0,0,0],"sum_hessian":[7.202846E1,2.1392466E1,5.063599E1,1.056074E1,1.0831726E1,3.1669357E1,1.8966633E1,5.940224E0,4.6205163E0,8.085351E0,2.7463748E0,6.466579E0,2.520278E1,1.0425727E1,8.540906E0],"tree_param":{"num_deleted":"0","num_feature":"7","num_nodes":"15","size_leaf_vector":"1"}},{"base_weights":[-5.736834E-2,-1.6314338E-1,1.5002862E-1,4.1447017E-1,-2.096432E-1,-1.4941965E-1,4.9209723E-1,6.7805134E-2,-1.5482724E-2,-3.6028117E-2,-4.357248E-3,3.1292387E-3,-4.0021207E-2,6.278449E-2,-2.8926838E-2],"categories":[],"categories_nodes":[],"categories_segments":[],"categories_sizes":[],"default_left":[0,0,0,0,0,0,0,0,0,0,0,0,0,0,0],"id":75,"left_children":[1,3,5,7,9,11,13,-1,-1,-1,-1,-1,-1,-1,-1],"loss_changes":[1.6925286E0,1.4522417E0,2.7575178E0,7.2371083E-1,1.1778629E0,6.805053E-1,1.5036376E0,0E0,0E0,0E0,0E0,0E0,0E0,0E0,0E0],"parents":[2147483647,0,0,1,1,2,2,3,3,4,4,5,5,6,6],"right_children":[2,4,6,8,10,12,14,-1,-1,-1,-1,-1,-1,-1,-1],"split_conditions":[1.3806239E0,-1.2735996E0,1.2390225E-2,2.0812144E0,8.1303364E-1,3.7992316E-1,2.0487416E0,6.7805134E-2,-1.5482724E-2,-3.6028117E-2,-4.357248E-3,3.1292387E-3,-4.0021207E-2,6.278449E-2,-2.8926838E-2],"split_indices":[1,2,2,3,0,3,4,0,0,0,0,0,0,0,0],"split_type":[0,0,0,0,0,0,0,0,0,0,0,0,0,0,0],"sum_hessian":[7.503685E1,4.983417E1,2.5202675E1,3.1233258E0,4.6710846E1,1.3738832E1,1.1463842E1,2.0043106E0,1.1190151E0,2.3880283E1,2.2830564E1,8.493759E0,5.2450733E0,9.934402E0,1.5294397E0],"tree_param":{"num_deleted":"0","num_feature":"7","num_nodes":"15","size_leaf_vector":"1"}},{"base_weights":[-3.8135424E-2,-1.3702802E-1,1.962012E-1,-7.552534E-2,-5.6430817E-1,5.61266E-2,6.225619E-1,-1.1899664E-2,8.990629E-2,-8.728695E-2,-3.192162E-3,2.4417393E-2,-7.017322E-2,7.76275E-2,2.0728674E-2],"categories":[],"categories_nodes":[],"categories_segments":[],"categories_sizes":[],"default_left":[0,0,0,0,0,0,0,0,0,0,0,0,0,0,0],"id":76,"left_children":[1,3,5,7,9,11,13,-1,-1,-1,-1,-1,-1,-1,-1],"loss_changes":[1.8149755E0,1.3987542E0,1.3571646E0,2.1872745E0,1.0805011E0,2.8284307E0,2.0071626E-1,0E0,0E0,0E0,0E0,0E0,0E0,0E0,0E0],"parents":[2147483647,0,0,1,1,2,2,3,3,4,4,5,5,6,6],"right_children":[2,4,6,8,10,12,14,-1,-1,-1,-1,-1,-1,-1,-1],"split_conditions":[1.0446225E0,4.8895526E-1,1.8896887E-1,4.6039155E-1,1.0381396E0,3.556101E-2,1.0366838E0,-1.1899664E-2,8.990629E-2,-8.728695E-2,-3.192162E-3,2.4417393E-2,-7.017322E-2,7.76275E-2,2.0728674E-2],"split_indices":[6,5,5,5,5,2,2,0,0,0,0,0,0,0,0],"split_type":[0,0,0,0,0,0,0,0,0,0,0,0,0,0,0],"sum_hessian":[7.6158806E1,5.3849136E1,2.230967E1,4.8102085E1,5.747053E0,1.7644476E1,4.665195E0,4.6888535E1,1.2135521E0,3.2334597E0,2.5135934E0,1.4679792E1,2.964683E0,2.7704253E0,1.8947697E0],"tree_param":{"num_deleted":"0","num_feature":"7","num_nodes":"15","size_leaf_vector":"1"}},{"base_weights":[-1.4101256E-1,2.0874171E-1,-1.7424963E-1,5.1639616E-1,-2.8319657E-1,-9.608242E-2,-3.5930544E-1,8.9467876E-2,-5.413239E-3,-7.18482E-2,3.2048527E-2,-1.2497823E-2,5.74376E-2,-1.9211596E-2,-5.158798E-2],"categories":[],"categories_nodes":[],"categories_segments":[],"categories_sizes":[],"default_left":[0,0,0,0,0,0,0,0,0,0,0,0,0,0,0],"id":77,"left_children":[1,3,5,7,9,11,13,-1,-1,-1,-1,-1,-1,-1,-1],"loss_changes":[9.1760266E-1,1.2107598E0,9.7475433E-1,1.0588005E0,1.1111096E0,1.0485469E0,4.3372846E-1,0E0,0E0,0E0,0E0,0E0,0E0,0E0,0E0],"parents":[2147483647,0,0,1,1,2,2,3,3,4,4,5,5,6,6],"right_children":[2,4,6,8,10,12,14,-1,-1,-1,-1,-1,-1,-1,-1],"split_conditions":[-1.1965902E0,2.0812144E0,3.7992316E-1,1.3806239E0,2.0487416E0,2.4998634E0,8.1303364E-1,8.9467876E-2,-5.413239E-3,-7.18482E-2,3.2048527E-2,-1.2497823E-2,5.74376E-2,-1.9211596E-2,-5.158798E-2],"split_indices":[2,3,3,1,4,2,0,0,0,0,0,0,0,0,0],"split_type":[0,0,0,0,0,0,0,0,0,0,0,0,0,0,0],"sum_hessian":[7.480595E1,6.033624E0,6.877232E1,3.6815152E0,2.3521092E0,4.941762E1,1.9354702E1,1.8720895E0,1.8094257E0,1.2561758E0,1.0959334E0,4.815577E1,1.261852E0,1.0437053E1,8.917649E0],"tree_param":{"num_deleted":"0","num_feature":"7","num_nodes":"15","size_leaf_vector":"1"}},{"base_weights":[-4.610574E-2,4.4451568E-1,-8.45044E-2,1.1744999E-1,-2.7032075E-2,-3.0306536E-1,2.9224036E-2,-2.2179522E-2,-9.9371344E-2,-5.456334E-2,1.0455978E-2],"categories":[],"categories_nodes":[],"categories_segments":[],"categories_sizes":[],"default_left":[0,0,0,0,0,0,0,0,0,0,0],"id":78,"left_children":[1,3,5,-1,-1,7,9,-1,-1,-1,-1],"loss_changes":[1.4324529E0,3.2052536E0,1.736584E0,0E0,0E0,1.1198206E0,2.0764844E0,0E0,0E0,0E0,0E0],"parents":[2147483647,0,0,1,1,2,2,5,5,6,6],"right_children":[2,4,6,-1,-1,8,10,-1,-1,-1,-1],"split_conditions":[-4.8786446E-1,-1.1845789E-1,-2.724768E-1,1.1744999E-1,-2.7032075E-2,1.9460398E0,-4.773548E-1,-2.2179522E-2,-9.9371344E-2,-5.456334E-2,1.0455978E-2],"split_indices":[5,2,2,0,0,5,5,0,0,0,0],"split_type":[0,0,0,0,0,0,0,0,0,0,0],"sum_hessian":[7.3041824E1,4.5340276E0,6.85078E1,1.9251004E0,2.6089272E0,2.2877493E1,4.5630306E1,2.1650919E1,1.2265732E0,4.5637136E0,4.1066593E1],"tree_param":{"num_deleted":"0","num_feature":"7","num_nodes":"11","size_leaf_vector":"1"}},{"base_weights":[-2.3038317E-3,7.7322945E-2,-2.2445583E-1,4.3284863E-2,6.572599E-2,-5.3119177E-1,-4.8906516E-2,8.797712E-3,-7.1398936E-2,2.0586966E-2,-7.039053E-2,5.9408974E-2,-2.82197E-2],"categories":[],"categories_nodes":[],"categories_segments":[],"categories_sizes":[],"default_left":[0,0,0,0,0,0,0,0,0,0,0,0,0],"id":79,"left_children":[1,3,5,7,-1,9,11,-1,-1,-1,-1,-1,-1],"loss_changes":[1.3267207E0,1.0618525E0,1.0395033E0,1.8647426E0,0E0,1.048873E0,2.2206337E0,0E0,0E0,0E0,0E0,0E0,0E0],"parents":[2147483647,0,0,1,1,2,2,3,3,5,5,6,6],"right_children":[2,4,6,8,-1,10,12,-1,-1,-1,-1,-1,-1],"split_conditions":[-3.0544654E-2,-4.9800225E-2,3.844938E-1,-9.368753E-2,6.572599E-2,-1.8896753E0,5.504922E-1,8.797712E-3,-7.1398936E-2,2.0586966E-2,-7.039053E-2,5.9408974E-2,-2.82197E-2],"split_indices":[5,5,5,5,0,2,5,0,0,0,0,0,0],"split_type":[0,0,0,0,0,0,0,0,0,0,0,0,0],"sum_hessian":[7.302039E1,5.423329E1,1.8787106E1,5.224172E1,1.9915719E0,6.100998E0,1.2686108E1,5.0164948E1,2.0767734E0,1.1217816E0,4.9792166E0,2.9656377E0,9.720469E0],"tree_param":{"num_deleted":"0","num_feature":"7","num_nodes":"13","size_leaf_vector":"1"}},{"base_weights":[-6.743285E-2,-1.4916606E-1,8.30386E-2,-1.0857667E-1,-6.087881E-2,4.9498552E-1,-8.980582E-2,3.3540692E-2,-1.3965403E-2,2.3434436E-2,6.406263E-2,-2.737551E-2,1.6665898E-2],"categories":[],"categories_nodes":[],"categories_segments":[],"categories_sizes":[],"default_left":[0,0,0,0,0,0,0,0,0,0,0,0,0],"id":80,"left_children":[1,3,5,7,-1,9,11,-1,-1,-1,-1,-1,-1],"loss_changes":[9.375702E-1,8.5000694E-1,1.9755757E0,6.8620795E-1,0E0,1.5999651E-1,9.8687655E-1,0E0,0E0,0E0,0E0,0E0,0E0],"parents":[2147483647,0,0,1,1,2,2,3,3,5,5,6,6],"right_children":[2,4,6,8,-1,10,12,-1,-1,-1,-1,-1,-1],"split_conditions":[1.3806239E0,2.6372802E0,8.1303364E-1,-1.504628E0,-6.087881E-2,-1.1845789E-1,1.2390225E-2,3.3540692E-2,-1.3965403E-2,2.3434436E-2,6.406263E-2,-2.737551E-2,1.6665898E-2],"split_indices":[1,6,0,2,0,2,2,0,0,0,0,0,0],"split_type":[0,0,0,0,0,0,0,0,0,0,0,0,0],"sum_hessian":[7.422728E1,4.8105804E1,2.6121477E1,4.53382E1,2.767603E0,7.1697545E0,1.8951723E1,2.325306E0,4.3012894E1,3.5054324E0,3.6643221E0,1.0996831E1,7.954891E0],"tree_param":{"num_deleted":"0","num_feature":"7","num_nodes":"13","size_leaf_vector":"1"}},{"base_weights":[3.0741056E-2,1.1282416E-1,-2.2466049E-1,5.03096E-2,8.217475E-2,-5.772853E-1,-5.4729734E-2,9.547404E-3,-8.4860355E-2,-2.2045009E-2,-6.970548E-2,4.8827507E-2,-2.3162514E-2],"categories":[],"categories_nodes":[],"categories_segments":[],"categories_sizes":[],"default_left":[0,0,0,0,0,0,0,0,0,0,0,0,0],"id":81,"left_children":[1,3,5,7,-1,9,11,-1,-1,-1,-1,-1,-1],"loss_changes":[1.5789661E0,2.4736795E0,1.0685073E0,2.2415257E0,0E0,9.7011566E-2,1.409217E0,0E0,0E0,0E0,0E0,0E0,0E0],"parents":[2147483647,0,0,1,1,2,2,3,3,5,5,6,6],"right_children":[2,4,6,8,-1,10,12,-1,-1,-1,-1,-1,-1],"split_conditions":[7.9664895E-3,-5.5576894E-2,3.844938E-1,-9.368753E-2,8.217475E-2,1.3505326E-1,5.504922E-1,9.547404E-3,-8.4860355E-2,-2.2045009E-2,-6.970548E-2,4.8827507E-2,-2.3162514E-2],"split_indices":[5,5,5,5,0,5,5,0,0,0,0,0,0],"split_type":[0,0,0,0,0,0,0,0,0,0,0,0,0],"sum_hessian":[7.310837E1,5.57494E1,1.7358963E1,5.221585E1,3.5335526E0,4.865449E0,1.2493515E1,5.0568886E1,1.646963E0,1.9365144E0,2.9289346E0,2.6374013E0,9.856113E0],"tree_param":{"num_deleted":"0","num_feature":"7","num_nodes":"13","size_leaf_vector":"1"}},{"base_weights":[1.312742E-2,-6.567419E-2,3.72616E-2,2.378732E-1,-2.9234214E-2,3.3246264E-2,-3.9694767E-2,1.2775187E-2,-2.2258105E-2],"categories":[],"categories_nodes":[],"categories_segments":[],"categories_sizes":[],"default_left":[0,0,0,0,0,0,0,0,0],"id":82,"left_children":[1,-1,3,5,7,-1,-1,-1,-1],"loss_changes":[1.1661167E0,0E0,9.2883605E-1,1.1716065E0,1.630875E0,0E0,0E0,0E0,0E0],"parents":[2147483647,0,0,2,2,3,3,4,4],"right_children":[2,-1,4,6,8,-1,-1,-1,-1],"split_conditions":[-4.8994985E-1,-6.567419E-2,-4.7246003E-1,2.2808464E-1,8.1303364E-1,3.3246264E-2,-3.9694767E-2,1.2775187E-2,-2.2258105E-2],"split_indices":[5,0,5,2,0,0,0,0,0],"split_type":[0,0,0,0,0,0,0,0,0],"sum_hessian":[6.961689E1,1.5094143E0,6.8107475E1,1.6313604E1,5.179387E1,1.4612591E1,1.7010132E0,2.877199E1,2.302188E1],"tree_param":{"num_deleted":"0","num_feature":"7","num_nodes":"9","size_leaf_vector":"1"}},{"base_weights":[-4.8828967E-2,2.202196E-2,-3.2659215E-1,-8.307153E-3,4.7396824E-1,-5.3378195E-1,4.078026E-2,4.130741E-3,-7.651412E-2,-3.1877698E-3,7.271994E-2,1.072856E-2,-6.556952E-2,-3.4242757E-2,4.6157192E-2],"categories":[],"categories_nodes":[],"categories_segments":[],"categories_sizes":[],"default_left":[0,0,0,0,0,0,0,0,0,0,0,0,0,0,0],"id":83,"left_children":[1,3,5,7,9,11,13,-1,-1,-1,-1,-1,-1,-1,-1],"loss_changes":[1.455552E0,8.205498E-1,1.1650723E0,2.1648943E0,5.053086E-1,8.2649875E-1,1.1812739E0,0E0,0E0,0E0,0E0,0E0,0E0,0E0,0E0],"parents":[2147483647,0,0,1,1,2,2,3,3,4,4,5,5,6,6],"right_children":[2,4,6,8,10,12,14,-1,-1,-1,-1,-1,-1,-1,-1],"split_conditions":[5.3612244E-1,4.2060825E-1,1.6527594E0,1.4694644E0,-1.22008614E-1,-4.7286054E-1,-4.9800225E-2,4.130741E-3,-7.651412E-2,-3.1877698E-3,7.271994E-2,1.072856E-2,-6.556952E-2,-3.4242757E-2,4.6157192E-2],"split_indices":[2,2,2,5,5,5,5,0,0,0,0,0,0,0,0],"split_type":[0,0,0,0,0,0,0,0,0,0,0,0,0,0,0],"sum_hessian":[7.2596344E1,5.857575E1,1.4020594E1,5.581195E1,2.7637973E0,8.675075E0,5.3455186E0,5.326553E1,2.5464227E0,1.2136225E0,1.5501747E0,1.405323E0,7.269752E0,2.8951683E0,2.4503503E0],"tree_param":{"num_deleted":"0","num_feature":"7","num_nodes":"15","size_leaf_vector":"1"}},{"base_weights":[7.677631E-2,1.6770017E-1,-1.08044386E-1,2.3171869E-1,-2.8286773E-1,-2.491935E-1,8.4825404E-2,5.8290865E-2,1.619259E-2,-5.5664837E-2,3.9291788E-2,8.200839E-3,-4.696959E-2,-2.1362437E-2,4.2522278E-2],"categories":[],"categories_nodes":[],"categories_segments":[],"categories_sizes":[],"default_left":[0,0,0,0,0,0,0,0,0,0,0,0,0,0,0],"id":84,"left_children":[1,3,5,7,9,11,13,-1,-1,-1,-1,-1,-1,-1,-1],"loss_changes":[1.24185E0,1.4847323E0,6.913828E-1,9.7499824E-1,1.434516E0,1.095288E0,1.223583E0,0E0,0E0,0E0,0E0,0E0,0E0,0E0,0E0],"parents":[2147483647,0,0,1,1,2,2,3,3,4,4,5,5,6,6],"right_children":[2,4,6,8,10,12,14,-1,-1,-1,-1,-1,-1,-1,-1],"split_conditions":[3.7992316E-1,1.2292075E0,1.3806239E0,-7.345335E-1,2.4998634E0,-1.1845789E-1,-7.9953164E-2,5.8290865E-2,1.619259E-2,-5.5664837E-2,3.9291788E-2,8.200839E-3,-4.696959E-2,-2.1362437E-2,4.2522278E-2],"split_indices":[3,2,1,2,2,2,2,0,0,0,0,0,0,0,0],"split_type":[0,0,0,0,0,0,0,0,0,0,0,0,0,0,0],"sum_hessian":[7.182114E1,4.8200962E1,2.3620174E1,4.262968E1,5.57128E0,1.3470179E1,1.0149996E1,5.8485246E0,3.678116E1,4.090423E0,1.4808565E0,5.634722E0,7.8354564E0,5.6066694E0,4.5433264E0],"tree_param":{"num_deleted":"0","num_feature":"7","num_nodes":"15","size_leaf_vector":"1"}},{"base_weights":[-2.2575082E-2,1.7695992E-1,-9.7363085E-2,1.70184E-2,9.312473E-1,-6.1053973E-1,-3.1060325E-2,2.0535087E-2,-8.44039E-2,1.2868148E-1,9.228854E-3,-2.1733439E-2,-1.129408E-1,-1.71791E-2,1.9488178E-2],"categories":[],"categories_nodes":[],"categories_segments":[],"categories_sizes":[],"default_left":[0,0,0,0,0,0,0,0,0,0,0,0,0,0,0],"id":85,"left_children":[1,3,5,7,9,11,13,-1,-1,-1,-1,-1,-1,-1,-1],"loss_changes":[1.1239935E0,2.4663072E0,1.8385063E0,3.0912793E0,9.4943E-1,1.0179694E0,1.6042075E0,0E0,0E0,0E0,0E0,0E0,0E0,0E0,0E0],"parents":[2147483647,0,0,1,1,2,2,3,3,4,4,5,5,6,6],"right_children":[2,4,6,8,10,12,14,-1,-1,-1,-1,-1,-1,-1,-1],"split_conditions":[-4.7246003E-1,-4.7486696E-1,-4.4742778E-1,-4.7558904E-1,1.3806239E0,1.3806239E0,1.3806239E0,2.0535087E-2,-8.44039E-2,1.2868148E-1,9.228854E-3,-2.1733439E-2,-1.129408E-1,-1.71791E-2,1.9488178E-2],"split_indices":[5,5,5,5,1,1,1,0,0,0,0,0,0,0,0],"split_type":[0,0,0,0,0,0,0,0,0,0,0,0,0,0,0],"sum_hessian":[7.316586E1,1.9574577E1,5.3591286E1,1.6993734E1,2.5808437E0,5.1926146E0,4.839867E1,1.4568739E1,2.424995E0,1.4376959E0,1.1431477E0,3.7611935E0,1.4314208E0,2.9970724E1,1.8427944E1],"tree_param":{"num_deleted":"0","num_feature":"7","num_nodes":"15","size_leaf_vector":"1"}},{"base_weights":[-4.3693714E-2,7.064377E-3,-4.8904635E-2,1.5825519E-1,-1.0559138E-1,2.2645209E-3,1.4453737E-1,-4.102733E-2,1.2742149E-2],"categories":[],"categories_nodes":[],"categories_segments":[],"categories_sizes":[],"default_left":[0,0,0,0,0,0,0,0,0],"id":86,"left_children":[1,3,-1,5,7,-1,-1,-1,-1],"loss_changes":[1.6192329E0,1.1263909E0,0E0,4.892592E0,2.7453103E0,0E0,0E0,0E0,0E0],"parents":[2147483647,0,0,1,1,3,3,4,4],"right_children":[2,4,-1,6,8,-1,-1,-1,-1],"split_conditions":[2.6372802E0,-1.1845789E-1,-4.8904635E-2,-1.9546734E-1,1.1257046E-1,2.2645209E-3,1.4453737E-1,-4.102733E-2,1.2742149E-2],"split_indices":[6,2,0,2,2,0,0,0,0],"split_type":[0,0,0,0,0,0,0,0,0],"sum_hessian":[7.0478004E1,6.41507E1,6.3272986E0,2.721789E1,3.6932816E1,2.5544167E1,1.6737233E0,1.56753645E1,2.1257454E1],"tree_param":{"num_deleted":"0","num_feature":"7","num_nodes":"9","size_leaf_vector":"1"}},{"base_weights":[2.6889205E-2,-2.1259941E-1,1.04092166E-1,-1.0002772E-1,-7.702846E-2,-2.9779659E-3,2.8291923E-1,-5.954312E-2,3.7770455E-3,3.1385176E-2,-1.5860472E-2,8.559456E-2,9.568613E-3],"categories":[],"categories_nodes":[],"categories_segments":[],"categories_sizes":[],"default_left":[0,0,0,0,0,0,0,0,0,0,0,0,0],"id":87,